{"learner":{"attributes":{"best_iteration":"16","best_score":"0.5974408362529771"},"feature_names":["bm25","overlap","exact_match","bigram","jaccard","dice","q_len","p_len","tf_variance","unique_matches","first_pos","last_pos","avg_pos","coverage","stop_ratio","unique_q_in_p","sent_count","char_sim","idf_sum","lsa_sim","tfidf_cosine","normalized_bm25","doc_freq"],"feature_types":[],"gradient_booster":{"model":{"cats":{"enc":[],"feature_segments":[],"sorted_idx":[]},"gbtree_model_param":{"num_parallel_tree":"1","num_trees":"37"},"iteration_indptr":[0,1,2,3,4,5,6,7,8,9,10,11,12,13,14,15,16,17,18,19,20,21,22,23,24,25,26,27,28,29,30,31,32,33,34,35,36,37],"tree_info":[0,0,0,0,0,0,0,0,0,0,0,0,0,0,0,0,0,0,0,0,0,0,0,0,0,0,0,0,0,0,0,0,0,0,0,0,0],"trees":[{"base_weights":[-4.8360342E-9,-1.01984486E-1,1.4056188E-1,-2.1946022E-2,-2.0463583E-1,2.4653548E-1,1.00602545E-2,9.17594E-2,-1.0839802E-1,-7.7798195E-2,-2.741658E-1,2.9087472E-1,5.494651E-2,-6.1835635E-2,2.6924703E-1,-8.809516E-3,1.6785305E-2,-2.7887551E-2,-2.9963672E-3,-1.9753043E-2,6.535277E-3,-4.977811E-2,-1.7769182E-2,3.943862E-2,2.3537437E-2,-1.3786401E-2,1.4589732E-2,-2.551786E-2,-1.7799148E-3,3.025551E-2,-1.796827E-2],"categories":[],"categories_nodes":[],"categories_segments":[],"categories_sizes":[],"default_left":[0,0,0,0,0,0,0,0,0,0,0,0,0,0,0,0,0,0,0,0,0,0,0,0,0,0,0,0,0,0,0],"id":0,"left_children":[1,3,5,7,9,11,13,15,17,19,21,23,25,27,29,-1,-1,-1,-1,-1,-1,-1,-1,-1,-1,-1,-1,-1,-1,-1,-1],"loss_changes":[7.658667E1,2.5433784E1,3.1064888E1,1.7122326E1,1.1940311E1,1.0514893E1,1.8795513E1,1.0312483E1,1.3220988E1,8.268319E0,1.880294E1,5.6892166E0,4.1272974E0,6.7192984E0,3.3294182E0,0E0,0E0,0E0,0E0,0E0,0E0,0E0,0E0,0E0,0E0,0E0,0E0,0E0,0E0,0E0,0E0],"parents":[2147483647,0,0,1,1,2,2,3,3,4,4,5,5,6,6,7,7,8,8,9,9,10,10,11,11,12,12,13,13,14,14],"right_children":[2,4,6,8,10,12,14,16,18,20,22,24,26,28,30,-1,-1,-1,-1,-1,-1,-1,-1,-1,-1,-1,-1,-1,-1,-1,-1],"split_conditions":[6.363636E-1,6.122449E-2,2.6666667E-2,2.1899471E1,1.7737762E1,4.5E-1,8.4615386E-1,3.846154E-1,2.9102105E-1,2E0,5.7692308E-2,2.125151E1,7.5E-1,7.058824E-2,4.9333334E-1,-8.809516E-3,1.6785305E-2,-2.7887551E-2,-2.9963672E-3,-1.9753043E-2,6.535277E-3,-4.977811E-2,-1.7769182E-2,3.943862E-2,2.3537437E-2,-1.3786401E-2,1.4589732E-2,-2.551786E-2,-1.7799148E-3,3.025551E-2,-1.796827E-2],"split_indices":[1,10,10,0,0,14,1,1,20,9,13,0,1,13,14,0,0,0,0,0,0,0,0,0,0,0,0,0,0,0,0],"split_type":[0,0,0,0,0,0,0,0,0,0,0,0,0,0,0,0,0,0,0,0,0,0,0,0,0,0,0,0,0,0,0],"sum_hessian":[5.3405864E3,3.0951667E3,2.2454197E3,1.7398213E3,1.3553455E3,1.2386704E3,1.00674915E3,7.5143713E2,9.8838416E2,4.8065195E2,8.746935E2,1.0054597E3,2.3321071E2,7.887257E2,2.1802342E2,2.233561E2,5.2808105E2,3.1064346E2,6.777407E2,2.6152838E2,2.1912358E2,2.623764E2,6.123171E2,3.4880722E2,6.5665247E2,7.458307E1,1.5862764E2,1.4542778E2,6.432979E2,2.0326813E2,1.4755306E1],"tree_param":{"num_deleted":"0","num_feature":"23","num_nodes":"31","size_leaf_vector":"1"}},{"base_weights":[-1.6665794E-9,-5.742084E-2,9.937375E-2,4.5080453E-2,-9.768977E-2,3.3247617E-1,7.585817E-2,-1.0528418E-1,1.124874E-1,-1.6565502E-1,-7.251211E-2,3.5399142E-1,-5.9976876E-1,-6.47808E-2,1.24027304E-1,-2.704898E-2,-9.78913E-4,3.697552E-2,7.948104E-3,-2.9319618E-2,-1.0693337E-2,-9.462124E-3,5.204474E-3,-7.1559064E-3,3.922307E-2,-9.231855E-2,1.4625556E-2,-1.2645821E-2,8.646082E-3,1.5052027E-2,-2.1945972E-3],"categories":[],"categories_nodes":[],"categories_segments":[],"categories_sizes":[],"default_left":[0,0,0,0,0,0,0,0,0,0,0,0,0,0,0,0,0,0,0,0,0,0,0,0,0,0,0,0,0,0,0],"id":1,"left_children":[1,3,5,7,9,11,13,15,17,19,21,23,25,27,29,-1,-1,-1,-1,-1,-1,-1,-1,-1,-1,-1,-1,-1,-1,-1,-1],"loss_changes":[1.3369725E2,6.129888E1,4.7009903E1,4.2471416E1,1.8232346E1,1.597757E1,5.2819233E1,2.046215E1,2.4536102E1,2.1547249E1,2.1433926E1,1.2540222E1,4.502635E0,1.856934E1,2.2461052E1,0E0,0E0,0E0,0E0,0E0,0E0,0E0,0E0,0E0,0E0,0E0,0E0,0E0,0E0,0E0,0E0],"parents":[2147483647,0,0,1,1,2,2,3,3,4,4,5,5,6,6,7,7,8,8,9,9,10,10,11,11,12,12,13,13,14,14],"right_children":[2,4,6,8,10,12,14,16,18,20,22,24,26,28,30,-1,-1,-1,-1,-1,-1,-1,-1,-1,-1,-1,-1,-1,-1,-1,-1],"split_conditions":[4.7662285E-1,9.90099E-3,2.5192308E-1,5.2E1,5E1,1.6129032E-1,1.0344828E-1,1.5450938E0,1.3931025E1,1.6946572E-1,9.79021E-2,3.508772E-2,5E0,1.3320221E1,5.0576925E-1,-2.704898E-2,-9.78913E-4,3.697552E-2,7.948104E-3,-2.9319618E-2,-1.0693337E-2,-9.462124E-3,5.204474E-3,-7.1559064E-3,3.922307E-2,-9.231855E-2,1.4625556E-2,-1.2645821E-2,8.646082E-3,1.5052027E-2,-2.1945972E-3],"split_indices":[20,10,12,7,7,4,13,22,0,20,17,4,16,18,12,0,0,0,0,0,0,0,0,0,0,0,0,0,0,0,0],"split_type":[0,0,0,0,0,0,0,0,0,0,0,0,0,0,0,0,0,0,0,0,0,0,0,0,0,0,0,0,0,0,0],"sum_hessian":[2.3428484E4,1.4848844E4,8.579641E3,4.188144E3,1.0660699E4,7.8500446E2,7.7946357E3,1.2961844E3,2.8919597E3,2.8802085E3,7.780491E3,7.6790234E2,1.7102095E1,1.9884966E3,5.806139E3,4.7412305E2,8.220614E2,3.276775E2,2.5642822E3,9.0676245E2,1.9734462E3,6.607827E3,1.172664E3,6.3241436E1,7.0466095E2,1.1764481E1,5.337615E0,1.4125944E3,5.759022E2,4.914218E3,8.9192145E2],"tree_param":{"num_deleted":"0","num_feature":"23","num_nodes":"31","size_leaf_vector":"1"}},{"base_weights":[8.0263796E-11,-8.262291E-2,5.3876292E-2,-1.252791E-1,-2.2586545E-2,3.3842303E-2,1.8318255E-1,-7.3296964E-2,-1.8883409E-1,-1.1262659E-1,5.585993E-2,1.5317558E-1,1.2515469E-2,1.5712816E-1,5.726166E-1,7.7955534E-5,-2.2967927E-2,-4.360073E-2,-1.6596807E-2,-6.6240276E-3,-3.1962864E-2,1.263569E-2,-7.100695E-3,4.949779E-3,2.5072759E-2,4.4437665E-3,-5.9093274E-3,4.5339253E-2,1.338614E-2,1.8295717E-3,6.960701E-2],"categories":[],"categories_nodes":[],"categories_segments":[],"categories_sizes":[],"default_left":[0,0,0,0,0,0,0,0,0,0,0,0,0,0,0,0,0,0,0,0,0,0,0,0,0,0,0,0,0,0,0],"id":2,"left_children":[1,3,5,7,9,11,13,15,17,19,21,23,25,27,29,-1,-1,-1,-1,-1,-1,-1,-1,-1,-1,-1,-1,-1,-1,-1,-1],"loss_changes":[9.917435E1,2.251701E1,3.492862E1,1.6969734E1,2.581499E1,2.971801E1,1.826369E1,3.277745E1,1.29963E1,1.6317408E1,1.747905E1,1.7894287E1,2.2652042E1,1.16356735E1,7.723755E0,0E0,0E0,0E0,0E0,0E0,0E0,0E0,0E0,0E0,0E0,0E0,0E0,0E0,0E0,0E0,0E0],"parents":[2147483647,0,0,1,1,2,2,3,3,4,4,5,5,6,6,7,7,8,8,9,9,10,10,11,11,12,12,13,13,14,14],"right_children":[2,4,6,8,10,12,14,16,18,20,22,24,26,28,30,-1,-1,-1,-1,-1,-1,-1,-1,-1,-1,-1,-1,-1,-1,-1,-1],"split_conditions":[5.4545456E-1,6.779661E-2,8.888889E-1,1.290301E0,4E0,2.7875245E-1,7.994511E-1,4.8076922E-1,1.8181818E-2,9.166667E-1,4E0,4.122334E-1,4.318182E-1,2E-1,1.8421052E-1,7.7955534E-5,-2.2967927E-2,-4.360073E-2,-1.6596807E-2,-6.6240276E-3,-3.1962864E-2,1.263569E-2,-7.100695E-3,4.949779E-3,2.5072759E-2,4.4437665E-3,-5.9093274E-3,4.5339253E-2,1.338614E-2,1.8295717E-3,6.960701E-2],"split_indices":[1,17,1,22,16,12,20,12,4,11,9,20,14,12,13,0,0,0,0,0,0,0,0,0,0,0,0,0,0,0,0],"split_type":[0,0,0,0,0,0,0,0,0,0,0,0,0,0,0,0,0,0,0,0,0,0,0,0,0,0,0,0,0,0,0],"sum_hessian":[2.2277281E4,8.792642E3,1.3484639E4,5.1397393E3,3.652902E3,1.1676768E4,1.8078712E3,2.828467E3,2.3112722E3,1.70057E3,1.9523323E3,1.76949E3,9.907278E3,1.6958188E3,1.1205232E2,1.9199863E3,9.084807E2,1.9418098E2,2.1170913E3,1.390335E3,3.1023502E2,1.2549755E3,6.9735675E2,8.585426E2,9.109474E2,6.8527812E3,3.0544966E3,1.221355E2,1.5736833E3,2.0618961E1,9.1433365E1],"tree_param":{"num_deleted":"0","num_feature":"23","num_nodes":"31","size_leaf_vector":"1"}},{"base_weights":[4.050647E-10,-3.9262403E-2,8.876823E-2,-9.249692E-2,3.4575402E-3,3.1692475E-2,1.4205414E-1,-1.3065454E-1,-4.8116837E-2,-1.01563334E-1,3.2358736E-2,4.254363E-2,-5.319649E-1,-1.5054904E-1,1.559934E-1,-9.141041E-3,-2.4892587E-2,-6.36973E-3,2.8233856E-2,8.615443E-4,-1.684988E-2,2.157606E-3,3.1623024E-2,1.8233782E-2,1.0709749E-3,-9.661215E-2,-1.0484679E-2,-3.8737904E-3,-8.510281E-2,1.0726383E-2,2.2888115E-2],"categories":[],"categories_nodes":[],"categories_segments":[],"categories_sizes":[],"default_left":[0,0,0,0,0,0,0,0,0,0,0,0,0,0,0,0,0,0,0,0,0,0,0,0,0,0,0,0,0,0,0],"id":3,"left_children":[1,3,5,7,9,11,13,15,17,19,21,23,25,27,29,-1,-1,-1,-1,-1,-1,-1,-1,-1,-1,-1,-1,-1,-1,-1,-1],"loss_changes":[7.520809E1,3.402529E1,2.0121479E1,1.1273762E1,2.5199995E1,1.9572931E1,1.3981033E1,1.6598381E1,1.5881048E1,1.3215281E1,1.9921684E1,1.3958124E1,1.1107748E1,1.2194527E1,1.1578995E1,0E0,0E0,0E0,0E0,0E0,0E0,0E0,0E0,0E0,0E0,0E0,0E0,0E0,0E0,0E0,0E0],"parents":[2147483647,0,0,1,1,2,2,3,3,4,4,5,5,6,6,7,7,8,8,9,9,10,10,11,11,12,12,13,13,14,14],"right_children":[2,4,6,8,10,12,14,16,18,20,22,24,26,28,30,-1,-1,-1,-1,-1,-1,-1,-1,-1,-1,-1,-1,-1,-1,-1,-1],"split_conditions":[7.5E-1,3.1937578E-1,5.099032E-1,5E0,4.3521115E-1,9.5750517E-1,3.6363635E-2,4.4347826E-1,1.265E1,9.090909E-3,1.21E2,2.6190478E-1,4.0449437E-1,2.621678E1,8.6003506E-1,-9.141041E-3,-2.4892587E-2,-6.36973E-3,2.8233856E-2,8.615443E-4,-1.684988E-2,2.157606E-3,3.1623024E-2,1.8233782E-2,1.0709749E-3,-9.661215E-2,-1.0484679E-2,-3.8737904E-3,-8.510281E-2,1.0726383E-2,2.2888115E-2],"split_indices":[1,20,20,16,19,19,17,14,8,10,7,12,14,0,19,0,0,0,0,0,0,0,0,0,0,0,0,0,0,0,0],"split_type":[0,0,0,0,0,0,0,0,0,0,0,0,0,0,0,0,0,0,0,0,0,0,0,0,0,0,0,0,0,0,0],"sum_hessian":[2.1576941E4,1.4960453E4,6.616487E3,6.6600337E3,8.30042E3,3.1954075E3,3.4210796E3,3.580019E3,3.0800146E3,1.7907383E3,6.509681E3,3.1359607E3,5.9446915E1,1.5511954E2,3.26596E3,2.6894077E3,8.906115E2,2.9421062E3,1.3790857E2,6.7708954E2,1.1136488E3,6.2725005E3,2.3718086E2,5.8078674E2,2.5551738E3,2.885473E1,3.0592182E1,1.3467749E2,2.0442049E1,1.9588378E3,1.3071222E3],"tree_param":{"num_deleted":"0","num_feature":"23","num_nodes":"31","size_leaf_vector":"1"}},{"base_weights":[3.294997E-10,-3.4468893E-2,7.628116E-2,-1.22028574E-1,-1.1596565E-2,9.920217E-2,-5.147287E-2,-1.15766704E-1,-8.969159E-2,4.9460992E-2,-4.5335118E-2,7.199849E-2,2.31671E-1,-5.618808E-1,-1.3674019E-2,-9.996956E-3,-3.6725666E-2,-1.3146274E-3,1.2836933E-2,-1.5786033E-2,-1.8643333E-3,8.307005E-3,-3.7023578E-2,1.9234447E-2,5.7597745E-2,1.257501E-2,-9.750385E-2,8.6015085E-4,-7.59778E-2],"categories":[],"categories_nodes":[],"categories_segments":[],"categories_sizes":[],"default_left":[0,0,0,0,0,0,0,0,0,0,0,0,0,0,0,0,0,0,0,0,0,0,0,0,0,0,0,0,0],"id":4,"left_children":[1,3,5,7,9,11,13,15,-1,17,19,21,23,25,27,-1,-1,-1,-1,-1,-1,-1,-1,-1,-1,-1,-1,-1,-1],"loss_changes":[5.5354134E1,2.903836E1,1.919167E1,1.4468231E1,2.3688448E1,2.0004517E1,1.9234922E1,1.1803249E1,0E0,2.022089E1,2.2242271E1,2.260589E1,1.2699833E1,1.965322E1,1.5457207E1,0E0,0E0,0E0,0E0,0E0,0E0,0E0,0E0,0E0,0E0,0E0,0E0,0E0,0E0],"parents":[2147483647,0,0,1,1,2,2,3,3,4,4,5,5,6,6,7,7,9,9,10,10,11,11,12,12,13,13,14,14],"right_children":[2,4,6,8,10,12,14,16,-1,18,20,22,24,26,28,-1,-1,-1,-1,-1,-1,-1,-1,-1,-1,-1,-1,-1,-1],"split_conditions":[7.5E-1,3.75E-1,8.5365854E-2,2.0652173E-1,3.625E-1,5.625E-1,3.0508474E-1,4.8979592E-1,-8.969159E-2,1.2222222E0,5.1E1,5.1785713E-1,7.994511E-1,3.7468565E-1,1.8421052E-1,-9.996956E-3,-3.6725666E-2,-1.3146274E-3,1.2836933E-2,-1.5786033E-2,-1.8643333E-3,8.307005E-3,-3.7023578E-2,1.9234447E-2,5.7597745E-2,1.257501E-2,-9.750385E-2,8.6015085E-4,-7.59778E-2],"split_indices":[1,1,10,13,12,3,12,14,0,8,7,14,20,22,4,0,0,0,0,0,0,0,0,0,0,0,0,0,0],"split_type":[0,0,0,0,0,0,0,0,0,0,0,0,0,0,0,0,0,0,0,0,0,0,0,0,0,0,0,0,0],"sum_hessian":[2.1050584E4,1.4499358E4,6.551225E3,3.0021636E3,1.1497195E4,5.554828E3,9.9639667E2,2.9792378E3,2.2925823E1,4.0917605E3,7.4054346E3,4.609723E3,9.451049E2,6.7745544E1,9.286511E2,2.8044744E3,1.7476344E2,2.2820083E3,1.8097522E3,1.4188864E3,5.9865483E3,4.4979277E3,1.11795784E2,8.496203E2,9.548463E1,2.5687946E1,4.20576E1,9.026891E2,2.5962027E1],"tree_param":{"num_deleted":"0","num_feature":"23","num_nodes":"29","size_leaf_vector":"1"}},{"base_weights":[8.158853E-10,-4.338198E-2,5.875495E-2,3.0520618E-2,-7.1804725E-2,-2.1643646E-2,8.947253E-2,-4.1180152E-2,9.9776424E-2,-1.6105157E-1,-3.81864E-2,7.2051816E-2,-9.900561E-2,3.3584595E-2,1.4097448E-1,2.163907E-3,-1.656509E-2,1.1125254E-2,-5.6456495E-2,-1.542965E-2,-8.644585E-2,-7.70267E-4,-1.2124002E-2,-3.0993E-3,1.9891232E-2,-1.3254798E-2,3.4435164E-2,2.6761655E-2,9.768048E-4,1.4848952E-2,-4.5565166E-2],"categories":[],"categories_nodes":[],"categories_segments":[],"categories_sizes":[],"default_left":[0,0,0,0,0,0,0,0,0,0,0,0,0,0,0,0,0,0,0,0,0,0,0,0,0,0,0,0,0,0,0],"id":5,"left_children":[1,3,5,7,9,11,13,15,17,19,21,23,25,27,29,-1,-1,-1,-1,-1,-1,-1,-1,-1,-1,-1,-1,-1,-1,-1,-1],"loss_changes":[5.254891E1,2.4913532E1,2.162772E1,1.6365744E1,2.569379E1,1.755954E1,1.8232655E1,1.2667478E1,1.2843298E1,1.1001595E1,1.5755042E1,1.4329963E1,1.9776796E1,1.694165E1,1.4850868E1,0E0,0E0,0E0,0E0,0E0,0E0,0E0,0E0,0E0,0E0,0E0,0E0,0E0,0E0,0E0,0E0],"parents":[2147483647,0,0,1,1,2,2,3,3,4,4,5,5,6,6,7,7,8,8,9,9,10,10,11,11,12,12,13,13,14,14],"right_children":[2,4,6,8,10,12,14,16,18,20,22,24,26,28,30,-1,-1,-1,-1,-1,-1,-1,-1,-1,-1,-1,-1,-1,-1,-1,-1],"split_conditions":[1.764706E-1,9.090909E-3,6.111111E-1,7.3E1,1.7299846E-1,3.8554215E-1,5.099032E-1,7E0,9.8214287E-1,1.3E1,4.375E-1,8.035714E-2,1.16E2,1.9583334E-1,9.8675185E-1,2.163907E-3,-1.656509E-2,1.1125254E-2,-5.6456495E-2,-1.542965E-2,-8.644585E-2,-7.70267E-4,-1.2124002E-2,-3.0993E-3,1.9891232E-2,-1.3254798E-2,3.4435164E-2,2.6761655E-2,9.768048E-4,1.4848952E-2,-4.5565166E-2],"split_indices":[3,10,1,7,20,14,20,6,11,16,14,17,7,12,19,0,0,0,0,0,0,0,0,0,0,0,0,0,0,0,0],"split_type":[0,0,0,0,0,0,0,0,0,0,0,0,0,0,0,0,0,0,0,0,0,0,0,0,0,0,0,0,0,0,0],"sum_hessian":[2.0614258E4,1.185864E4,8.755618E3,3.293934E3,8.564705E3,2.420534E3,6.3350845E3,1.6185988E3,1.6753353E3,2.3424343E3,6.222271E3,1.0947351E3,1.3257988E3,3.0389666E3,3.296118E3,1.076251E3,5.423477E2,1.6477047E3,2.7630642E1,2.3213608E3,2.1073507E1,4.5524478E3,1.669823E3,6.0448584E2,4.9024924E2,1.2332015E3,9.259729E1,2.79753E2,2.7592134E3,3.2558586E3,4.0259403E1],"tree_param":{"num_deleted":"0","num_feature":"23","num_nodes":"31","size_leaf_vector":"1"}},{"base_weights":[-7.7574863E-10,-2.607351E-2,9.624703E-2,3.8082676E-3,-8.446543E-2,-6.9764465E-2,1.1864477E-1,-6.3674144E-2,3.4863446E-2,-1.2929502E-1,-2.3051675E-2,-3.5713743E-2,-9.509567E-2,1.6665533E-1,5.0609116E-2,-1.02137765E-2,8.710387E-3,-2.8926851E-3,7.238008E-3,-1.1129714E-2,-3.0832961E-2,-1.02083E-3,-6.3880004E-2,1.7495124E-2,-1.9792382E-2,1.7988758E-2,-2.1850957E-2,-5.6494195E-2,8.786758E-3],"categories":[],"categories_nodes":[],"categories_segments":[],"categories_sizes":[],"default_left":[0,0,0,0,0,0,0,0,0,0,0,0,0,0,0,0,0,0,0,0,0,0,0,0,0,0,0,0,0],"id":6,"left_children":[1,3,5,7,9,11,13,15,17,19,21,23,-1,25,27,-1,-1,-1,-1,-1,-1,-1,-1,-1,-1,-1,-1,-1,-1],"loss_changes":[5.068935E1,2.7732052E1,1.601757E1,2.203673E1,1.4809479E1,1.5342725E1,1.2384716E1,1.9228542E1,1.7236048E1,9.98616E0,1.795631E1,1.6930624E1,0E0,1.1373985E1,3.6082634E1,0E0,0E0,0E0,0E0,0E0,0E0,0E0,0E0,0E0,0E0,0E0,0E0,0E0,0E0],"parents":[2147483647,0,0,1,1,2,2,3,3,4,4,5,5,6,6,7,7,8,8,9,9,10,10,11,11,13,13,14,14],"right_children":[2,4,6,8,10,12,14,16,18,20,22,24,-1,26,28,-1,-1,-1,-1,-1,-1,-1,-1,-1,-1,-1,-1,-1,-1],"split_conditions":[7.777778E-1,4.5238096E-1,4.9469966E-2,2.689726E-1,1.1111111E-1,8.510638E-2,4.1304347E-1,2.24E0,5.6E1,8.888889E-2,4.4680852E-1,1.010101E-2,-9.509567E-2,5.642857E-1,4.189189E-1,-1.02137765E-2,8.710387E-3,-2.8926851E-3,7.238008E-3,-1.1129714E-2,-3.0832961E-2,-1.02083E-3,-6.3880004E-2,1.7495124E-2,-1.9792382E-2,1.7988758E-2,-2.1850957E-2,-5.6494195E-2,8.786758E-3],"split_indices":[1,12,17,20,3,4,14,8,7,4,10,10,0,12,14,0,0,0,0,0,0,0,0,0,0,0,0,0,0],"split_type":[0,0,0,0,0,0,0,0,0,0,0,0,0,0,0,0,0,0,0,0,0,0,0,0,0,0,0,0,0],"sum_hessian":[2.0197E4,1.58924375E4,4.304563E3,1.0513262E4,5.379176E3,5.114669E2,3.7930962E3,3.313036E3,7.2002256E3,3.1087825E3,2.270393E3,4.9344006E2,1.802681E1,2.222969E3,1.5701272E3,2.6399138E3,6.73122E2,2.6665188E3,4.533707E3,2.8262852E3,2.8249747E2,2.2250002E3,4.5392826E1,2.1462473E2,2.7881534E2,2.1496514E3,7.33178E1,8.8805145E1,1.481322E3],"tree_param":{"num_deleted":"0","num_feature":"23","num_nodes":"29","size_leaf_vector":"1"}},{"base_weights":[3.2633765E-10,-2.7150594E-2,8.892102E-2,-3.8698427E-2,1.4280741E-1,-4.406641E-2,1.350939E-1,1.6117968E-2,-7.2575055E-2,8.60533E-2,4.2699438E-1,1.4014026E-3,-2.891631E-1,1.5052345E-1,-1.0685074E-1,-5.0835636E-2,2.0391922E-3,-1.0048117E-2,-7.41147E-4,-2.1523338E-2,1.3156357E-2,4.9458727E-2,-2.3200853E-2,-6.8751513E-3,1.689981E-2,3.0679202E-2,-3.8122874E-2,8.0173155E-3,1.9703474E-2,-3.586871E-2,1.25057055E-2],"categories":[],"categories_nodes":[],"categories_segments":[],"categories_sizes":[],"default_left":[0,0,0,0,0,0,0,0,0,0,0,0,0,0,0,0,0,0,0,0,0,0,0,0,0,0,0,0,0,0,0],"id":7,"left_children":[1,3,5,7,9,11,13,15,17,19,21,23,25,27,29,-1,-1,-1,-1,-1,-1,-1,-1,-1,-1,-1,-1,-1,-1,-1,-1],"loss_changes":[4.7870407E1,2.9818409E1,2.8485577E1,2.641598E1,1.5554075E1,1.33294E1,1.2869122E1,1.2190924E1,1.5986408E1,1.109344E1,7.2711067E0,1.18854265E1,1.0386224E1,1.0575943E1,1.2133772E1,0E0,0E0,0E0,0E0,0E0,0E0,0E0,0E0,0E0,0E0,0E0,0E0,0E0,0E0,0E0,0E0],"parents":[2147483647,0,0,1,1,2,2,3,3,4,4,5,5,6,6,7,7,8,8,9,9,10,10,11,11,12,12,13,13,14,14],"right_children":[2,4,6,8,10,12,14,16,18,20,22,24,26,28,30,-1,-1,-1,-1,-1,-1,-1,-1,-1,-1,-1,-1,-1,-1,-1,-1],"split_conditions":[5.655468E-1,8.75E-1,5.4166667E-2,1.724138E-2,3.1815228E1,4.4347826E-1,9.25E0,2E-1,7.7997506E-1,3.265306E-1,4.7368422E-1,4.4722223E0,3.271536E0,7.577839E-1,1.36875E1,-5.0835636E-2,2.0391922E-3,-1.0048117E-2,-7.41147E-4,-2.1523338E-2,1.3156357E-2,4.9458727E-2,-2.3200853E-2,-6.8751513E-3,1.689981E-2,3.0679202E-2,-3.8122874E-2,8.0173155E-3,1.9703474E-2,-3.586871E-2,1.25057055E-2],"split_indices":[20,1,17,10,0,14,8,1,19,14,14,8,18,19,8,0,0,0,0,0,0,0,0,0,0,0,0,0,0,0,0],"split_type":[0,0,0,0,0,0,0,0,0,0,0,0,0,0,0,0,0,0,0,0,0,0,0,0,0,0,0,0,0,0,0],"sum_hessian":[1.9826205E4,1.5189141E4,4.637064E3,1.4223494E4,9.656462E2,1.1950679E3,3.441996E3,5.4329165E3,8.790578E3,8.059877E2,1.5965852E2,1.0089012E3,1.8616666E2,3.2360042E3,2.05992E2,4.296176E1,5.389955E3,6.154423E3,2.636155E3,1.0528061E2,7.0070703E2,1.4503229E2,1.4626243E1,7.116199E2,2.972813E2,2.4599287E1,1.6156738E2,1.2890242E3,1.94698E3,9.849085E1,1.0750115E2],"tree_param":{"num_deleted":"0","num_feature":"23","num_nodes":"31","size_leaf_vector":"1"}},{"base_weights":[2.472796E-10,-3.2781407E-2,7.325478E-2,-6.2198542E-2,3.0394372E-2,2.231593E-1,5.5846147E-2,-1.3489614E-1,-3.2585822E-2,6.581265E-2,-9.1504775E-2,-1.4702071E-1,2.7407956E-1,-9.9994786E-2,7.8012004E-2,-4.972108E-3,-1.9873587E-2,-3.980639E-3,3.1703096E-2,-2.9306158E-2,7.711316E-3,1.5901266E-2,-1.5294239E-2,1.2988023E-2,-9.58752E-2,2.5214746E-3,3.6116403E-2,-5.828102E-3,-5.1666148E-2,-3.2478533E-4,1.053447E-2],"categories":[],"categories_nodes":[],"categories_segments":[],"categories_sizes":[],"default_left":[0,0,0,0,0,0,0,0,0,0,0,0,0,0,0,0,0,0,0,0,0,0,0,0,0,0,0,0,0,0,0],"id":8,"left_children":[1,3,5,7,9,11,13,15,17,19,21,23,25,27,29,-1,-1,-1,-1,-1,-1,-1,-1,-1,-1,-1,-1,-1,-1,-1,-1],"loss_changes":[4.6743385E1,2.4993225E1,1.5691505E1,1.9748257E1,1.8454372E1,1.1836351E1,1.8636745E1,1.4429108E1,1.647448E1,1.3452411E1,1.4837255E1,1.7279667E1,1.1920883E1,1.1649318E1,1.0487968E1,0E0,0E0,0E0,0E0,0E0,0E0,0E0,0E0,0E0,0E0,0E0,0E0,0E0,0E0,0E0,0E0],"parents":[2147483647,0,0,1,1,2,2,3,3,4,4,5,5,6,6,7,7,8,8,9,9,10,10,11,11,12,12,13,13,14,14],"right_children":[2,4,6,8,10,12,14,16,18,20,22,24,26,28,30,-1,-1,-1,-1,-1,-1,-1,-1,-1,-1,-1,-1,-1,-1,-1,-1],"split_conditions":[7.5E-1,8.450704E-2,2.3333333E-1,5.7E1,4.473684E-1,3.6E1,7E-1,5E0,1.34E2,4.7486126E-2,3.0729166E-1,4.4230768E-1,3.3333334E-1,4.651163E-1,5.7933956E-1,-4.972108E-3,-1.9873587E-2,-3.980639E-3,3.1703096E-2,-2.9306158E-2,7.711316E-3,1.5901266E-2,-1.5294239E-2,1.2988023E-2,-9.58752E-2,2.5214746E-3,3.6116403E-2,-5.828102E-3,-5.1666148E-2,-3.2478533E-4,1.053447E-2],"split_indices":[1,17,12,7,14,7,11,6,7,20,12,11,11,14,19,0,0,0,0,0,0,0,0,0,0,0,0,0,0,0,0],"split_type":[0,0,0,0,0,0,0,0,0,0,0,0,0,0,0,0,0,0,0,0,0,0,0,0,0,0,0,0,0,0,0],"sum_hessian":[1.94631E4,1.3446405E4,6.0166943E3,9.174439E3,4.271966E3,6.2479645E2,5.391898E3,2.6544224E3,6.520017E3,3.3105364E3,9.614293E2,7.532338E1,5.49473E2,6.7097546E2,4.7209224E3,1.1379484E3,1.5164741E3,6.3889536E3,1.3106367E2,1.0030126E2,3.210235E3,1.8903476E2,7.7239453E2,5.679071E1,1.8532671E1,1.4276817E2,4.0670486E2,6.109512E2,6.00243E1,1.1884758E3,3.5324465E3],"tree_param":{"num_deleted":"0","num_feature":"23","num_nodes":"31","size_leaf_vector":"1"}},{"base_weights":[6.6526573E-10,-3.7424892E-2,5.9744902E-2,2.6814885E-2,-6.3938186E-2,2.4927613E-1,4.4103198E-2,4.495593E-2,-2.262912E-1,-1.2406934E-1,-3.4090776E-2,6.3531065E-1,1.9816421E-1,8.447323E-3,1.3658339E-1,-2.5613487E-3,9.495047E-3,-2.99581E-2,4.920947E-2,-8.816117E-3,-2.3054074E-2,-9.9901445E-3,-5.273256E-4,6.126669E-3,7.192115E-2,1.2752913E-2,4.4684142E-2,3.1208536E-3,-1.5034484E-2,1.0086508E-2,2.9782211E-2],"categories":[],"categories_nodes":[],"categories_segments":[],"categories_sizes":[],"default_left":[0,0,0,0,0,0,0,0,0,0,0,0,0,0,0,0,0,0,0,0,0,0,0,0,0,0,0,0,0,0,0],"id":9,"left_children":[1,3,5,7,9,11,13,15,17,19,21,23,25,27,29,-1,-1,-1,-1,-1,-1,-1,-1,-1,-1,-1,-1,-1,-1,-1,-1],"loss_changes":[4.297932E1,2.0131323E1,2.1936865E1,1.5867261E1,1.5010998E1,1.1006126E1,2.2553963E1,1.137471E1,1.2316804E1,1.0588322E1,1.0605341E1,3.1112156E0,8.720024E0,1.785151E1,1.0931465E1,0E0,0E0,0E0,0E0,0E0,0E0,0E0,0E0,0E0,0E0,0E0,0E0,0E0,0E0,0E0,0E0],"parents":[2147483647,0,0,1,1,2,2,3,3,4,4,5,5,6,6,7,7,8,8,9,9,10,10,11,11,12,12,13,13,14,14],"right_children":[2,4,6,8,10,12,14,16,18,20,22,24,26,28,30,-1,-1,-1,-1,-1,-1,-1,-1,-1,-1,-1,-1,-1,-1,-1,-1],"split_conditions":[4.7446057E-1,9.90099E-3,2.3333333E-1,5.070422E-1,5.357143E-2,7.3249504E-2,1.9277108E-1,1.3333334E0,1.24E2,1.8367347E0,5E1,7.2649576E-2,6.25E-1,4.642857E-1,7.512998E-1,-2.5613487E-3,9.495047E-3,-2.99581E-2,4.920947E-2,-8.816117E-3,-2.3054074E-2,-9.9901445E-3,-5.273256E-4,6.126669E-3,7.192115E-2,1.2752913E-2,4.4684142E-2,3.1208536E-3,-1.5034484E-2,1.0086508E-2,2.9782211E-2],"split_indices":[20,10,12,12,17,22,13,8,7,8,7,12,11,14,20,0,0,0,0,0,0,0,0,0,0,0,0,0,0,0,0],"split_type":[0,0,0,0,0,0,0,0,0,0,0,0,0,0,0,0,0,0,0,0,0,0,0,0,0,0,0,0,0,0,0],"sum_hessian":[1.921998E4,1.1817645E4,7.402335E3,3.4524932E3,8.365151E3,5.631907E2,6.8391445E3,3.2223572E3,2.3013582E2,2.7738147E3,5.591337E3,6.451284E1,4.9867786E2,4.9368325E3,1.9023119E3,1.3364247E3,1.8859326E3,2.093599E2,2.0775934E1,2.0756248E3,6.9819E2,1.7020021E3,3.889335E3,8.447288E0,5.606555E1,3.895435E2,1.0913438E2,4.3186084E3,6.1822437E2,1.5586569E3,3.43655E2],"tree_param":{"num_deleted":"0","num_feature":"23","num_nodes":"31","size_leaf_vector":"1"}},{"base_weights":[1.2887365E-9,-9.226011E-2,2.3724714E-2,-8.0441535E-2,-3.1934604E-1,1.0555955E-2,1.447183E-1,-1.7418161E-1,-4.383245E-2,3.482386E-1,-4.0039185E-1,6.412943E-2,-1.9254483E-2,1.2716578E-1,5.794583E-1,-1.3546742E-2,-4.0075812E-2,-3.4299367E-3,-4.8558827E-2,7.45391E-2,-1.5073299E-2,-2.0219585E-2,-6.493497E-2,2.3275057E-2,4.2901034E-3,-4.9021165E-3,5.7654665E-3,1.3691323E-2,-6.40121E-2,1.2489157E-2,8.2220696E-2],"categories":[],"categories_nodes":[],"categories_segments":[],"categories_sizes":[],"default_left":[0,0,0,0,0,0,0,0,0,0,0,0,0,0,0,0,0,0,0,0,0,0,0,0,0,0,0,0,0,0,0],"id":10,"left_children":[1,3,5,7,9,11,13,15,17,19,21,23,25,27,29,-1,-1,-1,-1,-1,-1,-1,-1,-1,-1,-1,-1,-1,-1,-1,-1],"loss_changes":[4.1469017E1,1.0375046E1,2.4010502E1,1.2638163E1,1.0493784E1,2.170854E1,1.1213398E1,9.020918E0,1.1148987E1,4.323994E0,8.312304E0,1.7384983E1,1.9996931E1,1.0730608E1,6.200424E0,0E0,0E0,0E0,0E0,0E0,0E0,0E0,0E0,0E0,0E0,0E0,0E0,0E0,0E0,0E0,0E0],"parents":[2147483647,0,0,1,1,2,2,3,3,4,4,5,5,6,6,7,7,8,8,9,9,10,10,11,11,12,12,13,13,14,14],"right_children":[2,4,6,8,10,12,14,16,18,20,22,24,26,28,30,-1,-1,-1,-1,-1,-1,-1,-1,-1,-1,-1,-1,-1,-1,-1,-1],"split_conditions":[4.2857143E-1,4.909091E-1,9E-1,2.947861E-1,5.978261E-2,9.090909E-3,1.8796992E-1,7.042254E-2,9.551616E-1,2.1665636E-1,1.2073448E1,1.4933983E1,8.4558576E-1,5.208333E-1,2.0791333E0,-1.3546742E-2,-4.0075812E-2,-3.4299367E-3,-4.8558827E-2,7.45391E-2,-1.5073299E-2,-2.0219585E-2,-6.493497E-2,2.3275057E-2,4.2901034E-3,-4.9021165E-3,5.7654665E-3,1.3691323E-2,-6.40121E-2,1.2489157E-2,8.2220696E-2],"split_indices":[1,14,1,19,12,10,17,17,19,22,18,0,19,14,22,0,0,0,0,0,0,0,0,0,0,0,0,0,0,0,0],"split_type":[0,0,0,0,0,0,0,0,0,0,0,0,0,0,0,0,0,0,0,0,0,0,0,0,0,0,0,0,0,0,0],"sum_hessian":[1.894362E4,3.8743293E3,1.506929E4,3.683954E3,1.9037534E2,1.3591138E4,1.4781517E3,1.0335978E3,2.6503562E3,2.0252893E1,1.7012245E2,4.8585327E3,8.732605E3,1.4220302E3,5.6121605E1,8.8412836E2,1.4946945E2,2.5954246E3,5.4931564E1,1.1002047E1,9.250847E0,9.5726494E1,7.439596E1,5.4215204E2,4.3163804E3,6.2961323E3,2.4364731E3,1.4050029E3,1.7027292E1,2.0064215E1,3.605739E1],"tree_param":{"num_deleted":"0","num_feature":"23","num_nodes":"31","size_leaf_vector":"1"}},{"base_weights":[1.7510038E-10,-3.0421784E-2,6.832047E-2,-1.2675811E-1,-1.44946175E-2,1.2852044E-1,3.0614085E-2,-8.157594E-2,-1.1996958E-1,-6.2325876E-2,9.448854E-3,1.20143674E-1,7.473695E-1,-2.529524E-1,4.2467427E-2,-9.159218E-3,-2.7629187E-2,1.6124044E-3,-1.2027655E-2,1.8972264E-3,-2.4631351E-2,2.8883357E-2,9.636196E-3,8.979847E-2,2.5957385E-2,-4.847011E-2,1.0224142E-2,1.1366068E-2,-4.200361E-4],"categories":[],"categories_nodes":[],"categories_segments":[],"categories_sizes":[],"default_left":[0,0,0,0,0,0,0,0,0,0,0,0,0,0,0,0,0,0,0,0,0,0,0,0,0,0,0,0,0],"id":11,"left_children":[1,3,5,7,9,11,13,-1,15,17,19,21,23,25,27,-1,-1,-1,-1,-1,-1,-1,-1,-1,-1,-1,-1,-1,-1],"loss_changes":[3.8870552E1,1.9852781E1,1.30751705E1,8.488277E0,1.2718845E1,1.1412128E1,1.1923403E1,0E0,8.043657E0,1.6844597E1,1.803273E1,8.759132E0,1.929884E0,1.1767077E1,1.130608E1,0E0,0E0,0E0,0E0,0E0,0E0,0E0,0E0,0E0,0E0,0E0,0E0,0E0,0E0],"parents":[2147483647,0,0,1,1,2,2,3,3,4,4,5,5,6,6,8,8,9,9,10,10,11,11,12,12,13,13,14,14],"right_children":[2,4,6,8,10,12,14,-1,16,18,20,22,24,26,28,-1,-1,-1,-1,-1,-1,-1,-1,-1,-1,-1,-1,-1,-1],"split_conditions":[7.5E-1,2.8985508E-2,9.615385E-3,-1.0791347E-2,2.8220052E-1,1.9827892E1,3.508772E-2,-8.157594E-2,1.9779339E1,1.8667805E1,2.4561404E-1,2.1551724E-1,8E0,6.8063694E-1,2.092493E1,-9.159218E-3,-2.7629187E-2,1.6124044E-3,-1.2027655E-2,1.8972264E-3,-2.4631351E-2,2.8883357E-2,9.636196E-3,8.979847E-2,2.5957385E-2,-4.847011E-2,1.0224142E-2,1.1366068E-2,-4.200361E-4],"split_indices":[1,4,10,19,20,18,17,0,0,0,10,12,9,19,0,0,0,0,0,0,0,0,0,0,0,0,0,0,0],"split_type":[0,0,0,0,0,0,0,0,0,0,0,0,0,0,0,0,0,0,0,0,0,0,0,0,0,0,0,0,0],"sum_hessian":[1.8699875E4,1.2938961E4,5.760914E3,1.8347029E3,1.1104258E4,2.2177563E3,3.5431577E3,1.6737764E1,1.8179651E3,3.703756E3,7.4005015E3,2.189316E3,2.8440517E1,1.4134854E2,3.4018093E3,1.5399939E3,2.7797125E2,1.5738715E3,2.1298848E3,7.1357256E3,2.647757E2,2.6913388E2,1.920182E3,2.1088257E1,7.352261E0,8.531776E1,5.603078E1,1.3463984E3,2.055411E3],"tree_param":{"num_deleted":"0","num_feature":"23","num_nodes":"29","size_leaf_vector":"1"}},{"base_weights":[3.7647743E-11,-2.8764576E-2,6.430424E-2,-8.221669E-2,-3.6952747E-3,3.1145172E-2,1.2580611E-1,-4.5061424E-2,-1.826018E-1,-7.0441514E-2,2.8759629E-2,7.1366765E-2,-5.296461E-2,1.4875247E-1,-8.969003E-2,-1.5821245E-2,-6.7588734E-4,6.547765E-3,-2.2904154E-2,-2.1925747E-2,-3.824758E-3,1.7977651E-2,1.0100413E-3,8.041975E-4,1.2265917E-2,2.3077135E-3,-1.863161E-2,1.5351379E-2,-8.529376E-2,-4.252354E-2,9.680983E-3],"categories":[],"categories_nodes":[],"categories_segments":[],"categories_sizes":[],"default_left":[0,0,0,0,0,0,0,0,0,0,0,0,0,0,0,0,0,0,0,0,0,0,0,0,0,0,0,0,0,0,0],"id":12,"left_children":[1,3,5,7,9,11,13,15,17,19,21,23,25,27,29,-1,-1,-1,-1,-1,-1,-1,-1,-1,-1,-1,-1,-1,-1,-1,-1],"loss_changes":[3.413667E1,1.7086704E1,1.1628447E1,1.517617E1,1.8807978E1,1.2545478E1,9.891834E0,1.28822365E1,1.268129E1,1.3600407E1,1.6459705E1,8.146377E0,1.2171394E1,8.74374E0,1.2111081E1,0E0,0E0,0E0,0E0,0E0,0E0,0E0,0E0,0E0,0E0,0E0,0E0,0E0,0E0,0E0,0E0],"parents":[2147483647,0,0,1,1,2,2,3,3,4,4,5,5,6,6,7,7,8,8,9,9,10,10,11,11,12,12,13,13,14,14],"right_children":[2,4,6,8,10,12,14,16,18,20,22,24,26,28,30,-1,-1,-1,-1,-1,-1,-1,-1,-1,-1,-1,-1,-1,-1,-1,-1],"split_conditions":[7.5E-1,5.357143E-2,9.0614885E-2,4.829932E-1,5.1E1,2.4687033E1,9.5251787E-1,6.875E-1,3.0588236E-1,3.401486E-1,2.763466E-1,2.3076923E-1,2.3809524E-2,3.8297874E-1,1.4427953E0,-1.5821245E-2,-6.7588734E-4,6.547765E-3,-2.2904154E-2,-2.1925747E-2,-3.824758E-3,1.7977651E-2,1.0100413E-3,8.041975E-4,1.2265917E-2,2.3077135E-3,-1.863161E-2,1.5351379E-2,-8.529376E-2,-4.252354E-2,9.680983E-3],"split_indices":[1,17,17,12,7,0,19,8,14,19,12,3,10,10,22,0,0,0,0,0,0,0,0,0,0,0,0,0,0,0,0],"split_type":[0,0,0,0,0,0,0,0,0,0,0,0,0,0,0,0,0,0,0,0,0,0,0,0,0,0,0,0,0,0,0],"sum_hessian":[1.8453404E4,1.2750433E4,5.7029717E3,4.0700654E3,8.680367E3,3.706239E3,1.9967325E3,2.971632E3,1.0984332E3,2.8395085E3,5.8408584E3,2.5073616E3,1.1988776E3,1.8048582E3,1.9187434E2,7.50733E2,2.2208992E3,1.7313615E2,9.2529706E2,5.0399393E2,2.3355146E3,6.413675E2,5.199491E3,1.1225884E3,1.3847731E3,7.6402844E2,4.3484915E2,1.7971625E3,7.6956854E0,6.808951E1,1.2378483E2],"tree_param":{"num_deleted":"0","num_feature":"23","num_nodes":"31","size_leaf_vector":"1"}},{"base_weights":[-2.4128727E-10,-2.349513E-2,7.600156E-2,-3.246824E-2,1.0784226E-1,-2.6931295E-2,1.1068859E-1,1.4771005E-2,-6.208432E-2,2.5881926E-2,2.1556309E-1,2.9488733E-1,-5.5923473E-2,1.3075739E-1,-1.9492064E-2,7.385722E-3,-2.2885974E-3,-1.0175059E-2,-1.9431998E-3,8.137864E-3,-3.8341243E-2,-9.428569E-3,2.9060328E-2,-4.177078E-2,4.5103848E-2,-4.392964E-2,-2.9336174E-3,1.6346922E-2,4.704561E-3,-2.3428516E-2,5.926013E-3],"categories":[],"categories_nodes":[],"categories_segments":[],"categories_sizes":[],"default_left":[0,0,0,0,0,0,0,0,0,0,0,0,0,0,0,0,0,0,0,0,0,0,0,0,0,0,0,0,0,0,0],"id":13,"left_children":[1,3,5,7,9,11,13,15,17,19,21,23,25,27,29,-1,-1,-1,-1,-1,-1,-1,-1,-1,-1,-1,-1,-1,-1,-1,-1],"loss_changes":[3.2568047E1,1.642212E1,1.5380339E1,1.8246578E1,7.8626013E0,1.0152342E1,8.418972E0,1.1185352E1,1.3560289E1,1.1553083E1,8.977753E0,1.0196108E1,1.0153536E1,7.636032E0,7.3072615E0,0E0,0E0,0E0,0E0,0E0,0E0,0E0,0E0,0E0,0E0,0E0,0E0,0E0,0E0,0E0,0E0],"parents":[2147483647,0,0,1,1,2,2,3,3,4,4,5,5,6,6,7,7,8,8,9,9,10,10,11,11,12,12,13,13,14,14],"right_children":[2,4,6,8,10,12,14,16,18,20,22,24,26,28,30,-1,-1,-1,-1,-1,-1,-1,-1,-1,-1,-1,-1,-1,-1,-1,-1],"split_conditions":[5.655468E-1,8.75E-1,5.4166667E-2,1.724138E-2,1.8713373E0,2.4489796E-1,8.5365854E-2,1.963461E1,5E0,4.5882353E-1,4.6835375E-1,3.5714287E-2,8.1632656E-1,9.411765E-1,7.3529415E-2,7.385722E-3,-2.2885974E-3,-1.0175059E-2,-1.9431998E-3,8.137864E-3,-3.8341243E-2,-9.428569E-3,2.9060328E-2,-4.177078E-2,4.5103848E-2,-4.392964E-2,-2.9336174E-3,1.6346922E-2,4.704561E-3,-2.3428516E-2,5.926013E-3],"split_indices":[20,1,17,10,22,12,10,0,16,14,19,4,8,11,17,0,0,0,0,0,0,0,0,0,0,0,0,0,0,0,0],"split_type":[0,0,0,0,0,0,0,0,0,0,0,0,0,0,0,0,0,0,0,0,0,0,0,0,0,0,0,0,0,0,0],"sum_hessian":[1.8236594E4,1.3930735E4,4.305858E3,1.3040545E4,8.901911E2,1.085346E3,3.220512E3,5.0253467E3,8.0151978E3,5.0624808E2,3.8394302E2,8.8938675E1,9.964073E2,2.790345E3,4.301672E2,1.955726E3,3.0696208E3,4.1522544E3,3.8629434E3,4.4650684E2,5.9741222E1,7.480577E1,3.0913724E2,1.56850395E1,7.325364E1,6.361366E1,9.327936E2,2.0056499E3,7.8469495E2,1.1487521E2,3.15292E2],"tree_param":{"num_deleted":"0","num_feature":"23","num_nodes":"31","size_leaf_vector":"1"}},{"base_weights":[-5.0183867E-11,-2.8090581E-2,6.302464E-2,-5.6665964E-2,2.5339775E-2,6.962924E-3,1.0299885E-1,-6.467294E-2,1.9388549E-1,7.798568E-2,-3.668195E-2,1.877839E-2,-3.46173E-1,2.9588678E-1,8.639418E-2,-4.5709177E-3,-1.438932E-2,4.2842186E-4,4.8381798E-2,1.7085755E-2,2.6588764E-3,2.443464E-2,-6.229034E-3,2.4298478E-3,-6.9155104E-2,4.537557E-3,-5.965E-2,-2.3223273E-2,3.93756E-2,-9.2247985E-2,9.068461E-3],"categories":[],"categories_nodes":[],"categories_segments":[],"categories_sizes":[],"default_left":[0,0,0,0,0,0,0,0,0,0,0,0,0,0,0,0,0,0,0,0,0,0,0,0,0,0,0,0,0,0,0],"id":14,"left_children":[1,3,5,7,9,11,13,15,17,19,21,23,25,27,29,-1,-1,-1,-1,-1,-1,-1,-1,-1,-1,-1,-1,-1,-1,-1,-1],"loss_changes":[3.1838676E1,1.8993996E1,1.2424383E1,1.6272865E1,1.4158482E1,9.640228E0,1.0340462E1,1.1794025E1,1.3809534E1,1.1189935E1,1.4344519E1,8.780731E0,7.3588486E0,1.33293E1,1.2988604E1,0E0,0E0,0E0,0E0,0E0,0E0,0E0,0E0,0E0,0E0,0E0,0E0,0E0,0E0,0E0,0E0],"parents":[2147483647,0,0,1,1,2,2,3,3,4,4,5,5,6,6,7,7,8,8,9,9,10,10,11,11,12,12,13,13,14,14],"right_children":[2,4,6,8,10,12,14,16,18,20,22,24,26,28,30,-1,-1,-1,-1,-1,-1,-1,-1,-1,-1,-1,-1,-1,-1,-1,-1],"split_conditions":[7.5E-1,8.154506E-2,4.7662285E-1,1.25E2,9.090909E-2,5.140187E-1,2.4489796E-1,5.0576925E-1,5.9210528E-2,1.4492754E-2,5.0617284E-1,9.6341264E-1,6.9135803E-1,4.1E1,2.0491803E-2,-4.5709177E-3,-1.438932E-2,4.2842186E-4,4.8381798E-2,1.7085755E-2,2.6588764E-3,2.443464E-2,-6.229034E-3,2.4298478E-3,-6.9155104E-2,4.537557E-3,-5.965E-2,-2.3223273E-2,3.93756E-2,-9.2247985E-2,9.068461E-3],"split_indices":[1,17,20,7,4,14,12,12,17,10,11,19,8,7,17,0,0,0,0,0,0,0,0,0,0,0,0,0,0,0,0],"split_type":[0,0,0,0,0,0,0,0,0,0,0,0,0,0,0,0,0,0,0,0,0,0,0,0,0,0,0,0,0,0,0],"sum_hessian":[1.7981902E4,1.2438513E4,5.543389E3,8.1041997E3,4.3343125E3,2.3078816E3,3.2355076E3,7.8539497E3,2.5025003E2,2.3442148E3,1.9900975E3,2.234079E3,7.380253E1,2.5511766E2,2.98039E3,6.33827E3,1.51568E3,1.5191805E2,9.833199E1,8.3431744E2,1.5098975E3,1.654872E2,1.8246104E3,2.2178098E3,1.6269176E1,2.9101774E1,4.4700756E1,3.9671307E1,2.1544637E2,1.171474E1,2.968675E3],"tree_param":{"num_deleted":"0","num_feature":"23","num_nodes":"31","size_leaf_vector":"1"}},{"base_weights":[3.5985526E-10,-4.1826658E-2,4.2939838E-2,-1.2787384E-1,-2.0984108E-2,1.2183129E-2,1.00066334E-1,-8.877948E-2,-2.642593E-1,1.3367513E-2,-7.9768725E-2,3.1271692E-2,-1.5032756E-1,3.31606E-1,8.4740244E-2,4.7042686E-3,-1.4529695E-2,-1.9988187E-2,-7.536842E-2,-4.820545E-3,5.1730964E-3,-7.4326294E-3,-7.627835E-2,7.387022E-3,-2.6738073E-3,-4.472564E-2,-6.5068486E-3,5.1601063E-2,1.5002392E-3,-4.231082E-2,9.423301E-3],"categories":[],"categories_nodes":[],"categories_segments":[],"categories_sizes":[],"default_left":[0,0,0,0,0,0,0,0,0,0,0,0,0,0,0,0,0,0,0,0,0,0,0,0,0,0,0,0,0,0,0],"id":15,"left_children":[1,3,5,7,9,11,13,15,17,19,21,23,25,27,29,-1,-1,-1,-1,-1,-1,-1,-1,-1,-1,-1,-1,-1,-1,-1,-1],"loss_changes":[3.1997757E1,1.6182945E1,1.5444651E1,9.358437E0,1.4674279E1,1.7734686E1,1.0888969E1,1.0516303E1,1.2184786E1,1.0837974E1,9.906279E0,1.2643139E1,1.518442E1,1.11230545E1,1.3956768E1,0E0,0E0,0E0,0E0,0E0,0E0,0E0,0E0,0E0,0E0,0E0,0E0,0E0,0E0,0E0,0E0],"parents":[2147483647,0,0,1,1,2,2,3,3,4,4,5,5,6,6,7,7,8,8,9,9,10,10,11,11,12,12,13,13,14,14],"right_children":[2,4,6,8,10,12,14,16,18,20,22,24,26,28,30,-1,-1,-1,-1,-1,-1,-1,-1,-1,-1,-1,-1,-1,-1,-1,-1],"split_conditions":[6.111111E-1,2.8225565E-1,5.655468E-1,2.0388092E-1,4.1666666E-1,4.75E-1,2.4489796E-1,9.090909E-3,2.0917337E0,2.9102105E-1,1.6129032E-1,2.8571429E-2,5.5E1,8.888889E-2,6.779661E-2,4.7042686E-3,-1.4529695E-2,-1.9988187E-2,-7.536842E-2,-4.820545E-3,5.1730964E-3,-7.4326294E-3,-7.627835E-2,7.387022E-3,-2.6738073E-3,-4.472564E-2,-6.5068486E-3,5.1601063E-2,1.5002392E-3,-4.231082E-2,9.423301E-3],"split_indices":[1,19,20,19,14,14,12,10,22,20,4,10,7,4,13,0,0,0,0,0,0,0,0,0,0,0,0,0,0,0,0],"split_type":[0,0,0,0,0,0,0,0,0,0,0,0,0,0,0,0,0,0,0,0,0,0,0,0,0,0,0,0,0,0,0],"sum_hessian":[1.7813826E4,9.023895E3,8.789932E3,1.7585781E3,7.265317E3,5.714486E3,3.075446E3,1.3680756E3,3.9050253E2,4.5861235E3,2.6791936E3,5.114538E3,5.999478E2,1.8965076E2,2.8857954E3,4.020473E2,9.6602826E2,3.4635278E2,4.4149773E1,1.7604163E3,2.8257073E3,2.6591138E3,2.0079645E1,2.9488352E3,2.165703E3,1.3289014E2,4.670577E2,1.1944855E2,7.020221E1,5.2152313E1,2.833643E3],"tree_param":{"num_deleted":"0","num_feature":"23","num_nodes":"31","size_leaf_vector":"1"}},{"base_weights":[1.399415E-9,-2.1264125E-2,7.945526E-2,-9.953169E-2,-4.7566216E-3,4.2016782E-2,1.4672044E-1,-8.585818E-2,-4.8762536E-1,6.5856144E-2,-2.4283074E-2,4.625952E-2,-9.2378534E-2,2.9530546E-1,9.3838155E-2,-9.400374E-3,3.639804E-2,3.317529E-2,-6.1613914E-2,1.0648414E-2,-1.1847789E-2,-3.6409867E-3,9.694341E-3,-5.9232503E-2,5.276223E-3,-8.999548E-2,3.1943675E-2,1.2995164E-3,2.341365E-2],"categories":[],"categories_nodes":[],"categories_segments":[],"categories_sizes":[],"default_left":[0,0,0,0,0,0,0,0,0,0,0,0,0,0,0,0,0,0,0,0,0,0,0,0,0,0,0,0,0],"id":16,"left_children":[1,3,5,7,9,11,13,15,17,19,21,23,-1,25,27,-1,-1,-1,-1,-1,-1,-1,-1,-1,-1,-1,-1,-1,-1],"loss_changes":[2.977488E1,1.7961441E1,9.36347E0,1.2807577E1,1.5833149E1,9.842865E0,1.0422497E1,8.609192E0,8.859657E0,1.864225E1,1.3227596E1,9.923164E0,0E0,1.0343086E1,1.1138713E1,0E0,0E0,0E0,0E0,0E0,0E0,0E0,0E0,0E0,0E0,0E0,0E0,0E0,0E0],"parents":[2147483647,0,0,1,1,2,2,3,3,4,4,5,5,6,6,7,7,8,8,9,9,10,10,11,11,13,13,14,14],"right_children":[2,4,6,8,10,12,14,16,18,20,22,24,-1,26,28,-1,-1,-1,-1,-1,-1,-1,-1,-1,-1,-1,-1,-1,-1],"split_conditions":[7.777778E-1,3.529412E-1,9.589041E-2,6.818182E-2,3.0042017E-1,3.1666666E-1,3.5135135E-1,1.2539186E-1,5.0855494E-1,5.5555556E-2,8.222222E0,2E0,-9.2378534E-2,2.6E1,1.151628E1,-9.400374E-3,3.639804E-2,3.317529E-2,-6.1613914E-2,1.0648414E-2,-1.1847789E-2,-3.6409867E-3,9.694341E-3,-5.9232503E-2,5.276223E-3,-8.999548E-2,3.1943675E-2,1.2995164E-3,2.341365E-2],"split_indices":[1,1,17,4,12,13,14,17,22,10,8,16,0,7,18,0,0,0,0,0,0,0,0,0,0,0,0,0,0],"split_type":[0,0,0,0,0,0,0,0,0,0,0,0,0,0,0,0,0,0,0,0,0,0,0,0,0,0,0,0,0],"sum_hessian":[1.7621E4,1.3901388E4,3.7196113E3,2.4204062E3,1.1480981E4,2.3906482E3,1.3289633E3,2.3392112E3,8.119505E1,2.4865593E3,8.994423E3,2.38114E3,9.508175E0,3.4763052E2,9.813327E2,2.2983838E3,4.0827534E1,1.079389E1,7.040116E1,2.0378344E3,4.4872485E2,8.1771294E3,8.1729297E2,2.3094625E1,2.3580454E3,6.1612244E0,3.414693E2,6.2327856E2,3.5805414E2],"tree_param":{"num_deleted":"0","num_feature":"23","num_nodes":"29","size_leaf_vector":"1"}},{"base_weights":[9.988355E-10,-5.027591E-2,3.148733E-2,-8.036959E-2,-3.1163313E-3,-1.2199988E-2,6.7964695E-2,-3.3347867E-2,-1.1591517E-1,-4.1542213E-2,1.0025875E-1,-2.7402272E-2,1.2143092E-1,2.2931318E-1,5.5134486E-2,1.7047719E-3,-1.2596947E-2,-9.110195E-3,-2.965048E-2,8.560594E-4,-1.7308842E-2,2.0692518E-3,3.0742628E-2,1.8693524E-3,-8.516856E-3,-4.59548E-2,1.4654972E-2,2.733594E-2,-3.6326244E-2,1.2795044E-3,1.0334934E-2],"categories":[],"categories_nodes":[],"categories_segments":[],"categories_sizes":[],"default_left":[0,0,0,0,0,0,0,0,0,0,0,0,0,0,0,0,0,0,0,0,0,0,0,0,0,0,0,0,0,0,0],"id":17,"left_children":[1,3,5,7,9,11,13,15,17,19,21,23,25,27,29,-1,-1,-1,-1,-1,-1,-1,-1,-1,-1,-1,-1,-1,-1,-1,-1],"loss_changes":[2.762149E1,9.535925E0,1.7098305E1,6.8519993E0,1.0405757E1,9.922711E0,1.2091541E1,8.2512245E0,1.0438713E1,1.2587776E1,1.1694948E1,1.1677553E1,7.3484554E0,1.1332634E1,1.1058245E1,0E0,0E0,0E0,0E0,0E0,0E0,0E0,0E0,0E0,0E0,0E0,0E0,0E0,0E0,0E0,0E0],"parents":[2147483647,0,0,1,1,2,2,3,3,4,4,5,5,6,6,7,7,8,8,9,9,10,10,11,11,12,12,13,13,14,14],"right_children":[2,4,6,8,10,12,14,16,18,20,22,24,26,28,30,-1,-1,-1,-1,-1,-1,-1,-1,-1,-1,-1,-1,-1,-1,-1,-1],"split_conditions":[5.4545456E-1,7.172996E-2,4.5007297E-1,1.0299165E0,7.3E1,8.75E-1,2.413793E-1,4.1666666E-1,5.3206205E-1,4E0,4.6591276E-1,2.8571429E-2,2.820513E-1,1.4285715E-1,8.108108E-2,1.7047719E-3,-1.2596947E-2,-9.110195E-3,-2.965048E-2,8.560594E-4,-1.7308842E-2,2.0692518E-3,3.0742628E-2,1.8693524E-3,-8.516856E-3,-4.59548E-2,1.4654972E-2,2.733594E-2,-3.6326244E-2,1.2795044E-3,1.0334934E-2],"split_indices":[1,17,20,22,7,1,12,14,20,2,20,10,14,4,17,0,0,0,0,0,0,0,0,0,0,0,0,0,0,0,0],"split_type":[0,0,0,0,0,0,0,0,0,0,0,0,0,0,0,0,0,0,0,0,0,0,0,0,0,0,0,0,0,0,0],"sum_hessian":[1.7446227E4,6.718377E3,1.072785E4,4.100832E3,2.6175452E3,4.8818003E3,5.8460493E3,1.7662604E3,2.3345715E3,1.9086666E3,7.088784E2,4.3838716E3,4.9792847E2,4.293841E2,5.416665E3,1.1444039E3,6.218564E2,2.0538716E3,2.807E2,1.3828912E3,5.257754E2,5.129652E2,1.959132E2,2.4386094E3,1.9452622E3,1.9919125E1,4.7800934E2,4.0017755E2,2.9206547E1,2.8847302E3,2.5319348E3],"tree_param":{"num_deleted":"0","num_feature":"23","num_nodes":"31","size_leaf_vector":"1"}},{"base_weights":[-1.9077633E-10,-5.8787353E-2,2.5786E-2,-2.1176161E-2,-9.838169E-2,-5.6685053E-2,4.5337502E-2,-3.2543465E-2,3.224088E-1,-1.5560898E-1,-3.211407E-2,-1.0618768E-3,-1.6260093E-1,1.3951553E-1,3.1921E-2,-2.851775E-3,-8.882531E-2,-4.08824E-2,4.0746205E-2,-1.6537907E-2,5.706094E-2,-1.7733576E-3,-7.765467E-2,1.9915944E-3,-3.33981E-2,-1.9148216E-2,2.5914058E-2,-3.436292E-3,1.8463796E-2,6.1213253E-3,-2.2355195E-3],"categories":[],"categories_nodes":[],"categories_segments":[],"categories_sizes":[],"default_left":[0,0,0,0,0,0,0,0,0,0,0,0,0,0,0,0,0,0,0,0,0,0,0,0,0,0,0,0,0,0,0],"id":18,"left_children":[1,3,5,7,9,11,13,15,17,19,21,23,25,27,29,-1,-1,-1,-1,-1,-1,-1,-1,-1,-1,-1,-1,-1,-1,-1,-1],"loss_changes":[2.6198227E1,7.8449383E0,1.9372858E1,1.0569801E1,9.728771E0,1.3565427E1,1.2266363E1,8.993046E0,5.557187E0,9.864769E0,1.2732698E1,1.0557667E1,9.706991E0,9.505079E0,1.3518124E1,0E0,0E0,0E0,0E0,0E0,0E0,0E0,0E0,0E0,0E0,0E0,0E0,0E0,0E0,0E0,0E0],"parents":[2147483647,0,0,1,1,2,2,3,3,4,4,5,5,6,6,7,7,8,8,9,9,10,10,11,11,12,12,13,13,14,14],"right_children":[2,4,6,8,10,12,14,16,18,20,22,24,26,28,30,-1,-1,-1,-1,-1,-1,-1,-1,-1,-1,-1,-1,-1,-1,-1,-1],"split_conditions":[2.8220052E-1,1.8593023E1,3E0,1.118421E-1,1.1111111E-1,5.882353E-2,2.7875245E-1,1.06481485E-1,5.0632913E-2,2.8E-1,3.1460676E-1,9E0,1.05E2,4.830114E-1,4.2307693E-1,-2.851775E-3,-8.882531E-2,-4.08824E-2,4.0746205E-2,-1.6537907E-2,5.706094E-2,-1.7733576E-3,-7.765467E-2,1.9915944E-3,-3.33981E-2,-1.9148216E-2,2.5914058E-2,-3.436292E-3,1.8463796E-2,6.1213253E-3,-2.2355195E-3],"split_indices":[20,0,9,17,3,10,12,17,4,13,10,16,7,19,14,0,0,0,0,0,0,0,0,0,0,0,0,0,0,0,0],"split_type":[0,0,0,0,0,0,0,0,0,0,0,0,0,0,0,0,0,0,0,0,0,0,0,0,0,0,0,0,0,0,0],"sum_hessian":[1.72804E4,5.268319E3,1.2012081E4,2.7026091E3,2.5657095E3,2.3016194E3,9.710462E3,2.6169348E3,8.5674446E1,1.3760416E3,1.189668E3,1.5097589E3,7.918606E2,1.2096743E3,8.500787E3,2.6057095E3,1.1225325E1,8.530244E0,7.71442E1,1.358537E3,1.750462E1,1.1681267E3,2.1541338E1,1.4211499E3,8.860899E1,7.416198E2,5.02408E1,2.492876E2,9.6038666E2,5.5210244E3,2.9797627E3],"tree_param":{"num_deleted":"0","num_feature":"23","num_nodes":"31","size_leaf_vector":"1"}},{"base_weights":[2.989168E-11,-1.9627765E-2,7.30115E-2,-7.738289E-2,3.5094163E-5,6.479745E-2,3.1982446E-1,-1.5128274E-1,-3.226083E-2,-7.1621505E-3,1.7407802E-1,3.4794092E-2,1.2799783E-1,-2.1637537E-1,4.617307E-1,2.021928E-3,-2.0897381E-2,1.33099705E-2,-7.0035467E-3,3.3090997E-3,-4.1347886E-3,2.0359607E-2,-5.126327E-2,-4.700403E-2,4.2278273E-3,4.533221E-2,1.0482627E-2,2.5849134E-2,-7.970029E-2,5.7948332E-2,-6.58974E-3],"categories":[],"categories_nodes":[],"categories_segments":[],"categories_sizes":[],"default_left":[0,0,0,0,0,0,0,0,0,0,0,0,0,0,0,0,0,0,0,0,0,0,0,0,0,0,0,0,0,0,0],"id":19,"left_children":[1,3,5,7,9,11,13,15,17,19,21,23,25,27,29,-1,-1,-1,-1,-1,-1,-1,-1,-1,-1,-1,-1,-1,-1,-1,-1],"loss_changes":[2.4558395E1,1.5338089E1,7.3403053E0,1.143368E1,1.2623835E1,6.6611557E0,8.978991E0,1.2868584E1,1.33214245E1,1.331865E1,8.21663E0,9.031015E0,8.4798565E0,7.1268306E0,5.790821E0,0E0,0E0,0E0,0E0,0E0,0E0,0E0,0E0,0E0,0E0,0E0,0E0,0E0,0E0,0E0,0E0],"parents":[2147483647,0,0,1,1,2,2,3,3,4,4,5,5,6,6,7,7,8,8,9,9,10,10,11,11,12,12,13,13,14,14],"right_children":[2,4,6,8,10,12,14,16,18,20,22,24,26,28,30,-1,-1,-1,-1,-1,-1,-1,-1,-1,-1,-1,-1,-1,-1,-1,-1],"split_conditions":[7.777778E-1,5E1,8.2127196E-1,7.45614E-2,1.3023256E-1,1.0996633E1,1.891892E-1,4.781007E-2,2.1088435E-1,4.037267E-1,9.775281E-1,3.2E1,1.476317E1,3.8202247E-1,3.705681E1,2.021928E-3,-2.0897381E-2,1.33099705E-2,-7.0035467E-3,3.3090997E-3,-4.1347886E-3,2.0359607E-2,-5.126327E-2,-4.700403E-2,4.2278273E-3,4.533221E-2,1.0482627E-2,2.5849134E-2,-7.970029E-2,5.7948332E-2,-6.58974E-3],"split_indices":[1,7,20,17,17,18,13,19,12,12,11,7,0,14,0,0,0,0,0,0,0,0,0,0,0,0,0,0,0,0,0],"split_type":[0,0,0,0,0,0,0,0,0,0,0,0,0,0,0,0,0,0,0,0,0,0,0,0,0,0,0,0,0,0,0],"sum_hessian":[1.713512E4,1.3505226E4,3.6298938E3,3.4293533E3,1.0075873E4,3.5142021E3,1.156917E2,1.2992004E3,2.1301528E3,9.67667E3,3.992031E2,2.3839912E3,1.1302109E3,2.410081E1,9.159089E1,3.2719016E2,9.7201025E2,3.956499E2,1.7345028E3,4.4439834E3,5.232686E3,3.834252E2,1.5777893E1,3.3923546E1,2.3500676E3,7.3913666E1,1.0562972E3,1.3563059E1,1.0537751E1,7.479937E1,1.679152E1],"tree_param":{"num_deleted":"0","num_feature":"23","num_nodes":"31","size_leaf_vector":"1"}},{"base_weights":[4.0954468E-10,-2.865626E-2,4.5851655E-2,-3.2849826E-2,2.4993318E-1,-5.0247934E-2,6.885456E-2,-1.131517E-1,-2.1654477E-2,1.5112975E-1,6.952988E-1,6.7512274E-2,-1.2046292E-1,1.1576134E-3,9.253972E-2,-1.35700125E-2,1.586966E-2,-8.4222905E-2,-2.028681E-3,-5.1105138E-2,2.2210816E-2,8.649757E-2,4.6698462E-2,-6.659808E-2,9.152467E-3,-4.3762773E-3,-3.1791236E-2,1.6317209E-3,-6.953015E-2,8.3615735E-2,8.955971E-3],"categories":[],"categories_nodes":[],"categories_segments":[],"categories_sizes":[],"default_left":[0,0,0,0,0,0,0,0,0,0,0,0,0,0,0,0,0,0,0,0,0,0,0,0,0,0,0,0,0,0,0],"id":20,"left_children":[1,3,5,7,9,11,13,15,17,19,21,23,25,27,29,-1,-1,-1,-1,-1,-1,-1,-1,-1,-1,-1,-1,-1,-1,-1,-1],"loss_changes":[2.2367615E1,1.2247211E1,1.4476727E1,9.276728E0,6.7362614E0,1.0468596E1,8.47105E0,7.761471E0,1.0150595E1,6.1540756E0,6.7887974E-1,8.3953085E0,1.1994054E1,1.44796295E1,8.598141E0,0E0,0E0,0E0,0E0,0E0,0E0,0E0,0E0,0E0,0E0,0E0,0E0,0E0,0E0,0E0,0E0],"parents":[2147483647,0,0,1,1,2,2,3,3,4,4,5,5,6,6,7,7,8,8,9,9,10,10,11,11,12,12,13,13,14,14],"right_children":[2,4,6,8,10,12,14,16,18,20,22,24,26,28,30,-1,-1,-1,-1,-1,-1,-1,-1,-1,-1,-1,-1,-1,-1,-1,-1],"split_conditions":[4.7662285E-1,1.7741935E-1,4.6835375E-1,2E0,5.9E1,3.527443E-1,7.692308E-2,1E2,2.0408163E-2,3.1428573E-1,3.694898E-1,3.7449105E0,3.401486E-1,5.106383E-1,1.388889E-1,-1.35700125E-2,1.586966E-2,-8.4222905E-2,-2.028681E-3,-5.1105138E-2,2.2210816E-2,8.649757E-2,4.6698462E-2,-6.659808E-2,9.152467E-3,-4.3762773E-3,-3.1791236E-2,1.6317209E-3,-6.953015E-2,8.3615735E-2,8.955971E-3],"split_indices":[20,17,19,9,7,12,3,7,13,14,20,18,19,14,8,0,0,0,0,0,0,0,0,0,0,0,0,0,0,0,0],"split_type":[0,0,0,0,0,0,0,0,0,0,0,0,0,0,0,0,0,0,0,0,0,0,0,0,0,0,0,0,0,0,0],"sum_hessian":[1.7021355E4,1.0475055E4,6.5463003E3,1.0320583E4,1.5447215E2,1.2640935E3,5.2822065E3,1.2616838E3,9.058899E3,1.2752119E2,2.695097E1,4.7219534E2,7.918982E2,1.369357E3,3.9128496E3,1.1655115E3,9.617236E1,1.4050498E1,9.044849E3,1.1745298E1,1.1577589E2,1.3861185E1,1.3089786E1,1.4120788E1,4.5807455E2,5.712249E2,2.206733E2,1.3411415E3,2.8215612E1,1.4501964E1,3.8983477E3],"tree_param":{"num_deleted":"0","num_feature":"23","num_nodes":"31","size_leaf_vector":"1"}},{"base_weights":[1.8799531E-10,-2.9829055E-2,3.982791E-2,-9.542913E-2,-7.863927E-3,-1.2242313E-1,4.8443794E-2,-1.9727242E-1,-6.2255453E-2,3.1303333E-3,-1.19722106E-1,-2.3163152E-1,1.9331878E-1,5.527038E-2,-1.6360837E-1,-4.630429E-3,-3.2268215E-2,-3.4068474E-3,-3.2532822E-2,-7.960166E-3,2.1269096E-3,-1.689708E-2,2.031529E-2,-1.6694162E-2,-8.8928595E-2,8.797916E-2,7.5787897E-3,7.9475174E-4,8.461376E-3,-2.8778339E-2,1.3486599E-2],"categories":[],"categories_nodes":[],"categories_segments":[],"categories_sizes":[],"default_left":[0,0,0,0,0,0,0,0,0,0,0,0,0,0,0,0,0,0,0,0,0,0,0,0,0,0,0,0,0,0,0],"id":21,"left_children":[1,3,5,7,9,11,13,15,17,19,21,23,25,27,29,-1,-1,-1,-1,-1,-1,-1,-1,-1,-1,-1,-1,-1,-1,-1,-1],"loss_changes":[2.0105907E1,1.3942297E1,1.0137082E1,8.188057E0,8.916813E0,1.2655455E1,9.972101E0,1.1267199E1,1.3575825E1,9.909713E0,1.03521E1,1.1431448E1,7.56034E0,9.259417E0,8.004041E0,0E0,0E0,0E0,0E0,0E0,0E0,0E0,0E0,0E0,0E0,0E0,0E0,0E0,0E0,0E0,0E0],"parents":[2147483647,0,0,1,1,2,2,3,3,4,4,5,5,6,6,7,7,8,8,9,9,10,10,11,11,12,12,13,13,14,14],"right_children":[2,4,6,8,10,12,14,16,18,20,22,24,26,28,30,-1,-1,-1,-1,-1,-1,-1,-1,-1,-1,-1,-1,-1,-1,-1,-1],"split_conditions":[1.764706E-1,1.7299846E-1,6.1728396E-2,4.8E1,3.2026962E1,1.533992E1,5.8034897E-1,8.460833E0,2.437367E0,3.0143884E-1,1.1627907E-1,2.451935E1,2.75E-1,6.5E1,4.4285715E-1,-4.630429E-3,-3.2268215E-2,-3.4068474E-3,-3.2532822E-2,-7.960166E-3,2.1269096E-3,-1.689708E-2,2.031529E-2,-1.6694162E-2,-8.8928595E-2,8.797916E-2,7.5787897E-3,7.9475174E-4,8.461376E-3,-2.8778339E-2,1.3486599E-2],"split_indices":[3,20,13,7,0,18,12,18,22,19,10,0,14,7,14,0,0,0,0,0,0,0,0,0,0,0,0,0,0,0,0],"split_type":[0,0,0,0,0,0,0,0,0,0,0,0,0,0,0,0,0,0,0,0,0,0,0,0,0,0,0,0,0,0,0],"sum_hessian":[1.6921752E4,9.675529E3,7.246222E3,2.426201E3,7.249328E3,3.647212E2,6.881501E3,5.9490234E2,1.8312986E3,6.6014595E3,6.4786884E2,2.711891E2,9.353213E1,6.667591E3,2.1391019E2,2.7056528E2,3.2433707E2,1.6550929E3,1.7620573E2,1.1864773E3,5.414982E3,5.625403E2,8.532859E1,2.4804416E2,2.3144918E1,1.2724636E1,8.0807495E1,2.552452E3,4.1151387E3,1.5108835E2,6.282184E1],"tree_param":{"num_deleted":"0","num_feature":"23","num_nodes":"31","size_leaf_vector":"1"}},{"base_weights":[-2.424504E-10,4.9249537E-2,-2.3956504E-2,4.1256957E-2,3.7308007E-1,-6.266999E-2,3.5939597E-2,1.4097444E-2,1.4554209E-1,2.8658161E-2,5.088188E-1,-1.6534352E-1,-4.5491353E-2,4.806927E-2,-1.513223E-1,-4.547044E-3,6.8275183E-3,7.5764246E-3,3.179224E-2,3.2192644E-2,-8.250119E-2,-4.005545E-2,5.6997407E-2,-1.2828454E-2,-4.1837405E-2,-3.140267E-3,-1.9384548E-2,6.1080017E-4,1.12328315E-2,-8.652753E-3,-9.595762E-2],"categories":[],"categories_nodes":[],"categories_segments":[],"categories_sizes":[],"default_left":[0,0,0,0,0,0,0,0,0,0,0,0,0,0,0,0,0,0,0,0,0,0,0,0,0,0,0,0,0,0,0],"id":22,"left_children":[1,3,5,7,9,11,13,15,17,19,21,23,25,27,29,-1,-1,-1,-1,-1,-1,-1,-1,-1,-1,-1,-1,-1,-1,-1,-1],"loss_changes":[1.9874592E1,1.4252312E1,2.6280033E1,1.5238314E1,6.187214E0,1.2134123E1,1.0114494E1,1.3783962E1,1.3347822E1,9.919366E0,5.516781E0,9.194851E0,1.2322535E1,1.1269664E1,1.4105907E1,0E0,0E0,0E0,0E0,0E0,0E0,0E0,0E0,0E0,0E0,0E0,0E0,0E0,0E0,0E0,0E0],"parents":[2147483647,0,0,1,1,2,2,3,3,4,4,5,5,6,6,7,7,8,8,9,9,10,10,11,11,12,12,13,13,14,14],"right_children":[2,4,6,8,10,12,14,16,18,20,22,24,26,28,30,-1,-1,-1,-1,-1,-1,-1,-1,-1,-1,-1,-1,-1,-1,-1,-1],"split_conditions":[9.090909E-3,7.994511E-1,7.577839E-1,9.7E1,1.7777778E-1,3.5587188E-2,9.6638334E-1,6.666667E-1,1.3320221E1,3.902439E-1,7.346939E-1,3.3195022E-2,7.217516E-1,5.073517E-1,1.02E2,-4.547044E-3,6.8275183E-3,7.5764246E-3,3.179224E-2,3.2192644E-2,-8.250119E-2,-4.005545E-2,5.6997407E-2,-1.2828454E-2,-4.1837405E-2,-3.140267E-3,-1.9384548E-2,6.1080017E-4,1.12328315E-2,-8.652753E-3,-9.595762E-2],"split_indices":[10,20,19,7,13,17,19,1,18,14,11,17,19,20,7,0,0,0,0,0,0,0,0,0,0,0,0,0,0,0,0],"split_type":[0,0,0,0,0,0,0,0,0,0,0,0,0,0,0,0,0,0,0,0,0,0,0,0,0,0,0,0,0,0,0],"sum_hessian":[1.6843062E4,5.511507E3,1.1331556E4,5.379852E3,1.3165475E2,6.882832E3,4.4487236E3,4.2691504E3,1.1107015E3,3.756044E1,9.409431E1,9.8529315E2,5.897539E3,4.1787905E3,2.6993307E2,2.033499E3,2.2356514E3,7.916777E2,3.190238E2,2.8419981E1,9.140458E0,5.579397E0,8.8514915E1,8.6073627E2,1.2455686E2,5.3871514E3,5.1038763E2,2.5286638E3,1.6501268E3,2.5092442E2,1.9008646E1],"tree_param":{"num_deleted":"0","num_feature":"23","num_nodes":"31","size_leaf_vector":"1"}},{"base_weights":[4.767885E-10,-3.609862E-2,3.0987876E-2,-1.2341517E-2,-1.15058176E-1,-8.32133E-3,6.2858164E-2,-8.718275E-2,1.5588579E-2,8.299951E-2,-1.6009314E-1,4.8910223E-2,-4.8665464E-2,-1.7374118E-1,7.204415E-2,-7.89759E-3,-6.508024E-2,-2.4952154E-5,1.4993794E-2,2.905904E-3,7.065259E-2,-3.9774526E-2,-1.2962945E-2,-1.0906425E-2,7.6752068E-3,-2.6823586E-2,-2.8170415E-3,-4.208627E-2,1.7073898E-2,1.5937742E-2,5.070458E-3],"categories":[],"categories_nodes":[],"categories_segments":[],"categories_sizes":[],"default_left":[0,0,0,0,0,0,0,0,0,0,0,0,0,0,0,0,0,0,0,0,0,0,0,0,0,0,0,0,0,0,0],"id":23,"left_children":[1,3,5,7,9,11,13,15,17,19,21,23,25,27,29,-1,-1,-1,-1,-1,-1,-1,-1,-1,-1,-1,-1,-1,-1,-1,-1],"loss_changes":[1.8700579E1,1.4483878E1,1.12701235E1,1.2411836E1,1.5942499E1,9.304254E0,1.0809853E1,7.4127264E0,9.201736E0,1.11291895E1,1.0484997E1,7.336754E0,1.0628075E1,1.5902809E1,8.905758E0,0E0,0E0,0E0,0E0,0E0,0E0,0E0,0E0,0E0,0E0,0E0,0E0,0E0,0E0,0E0,0E0],"parents":[2147483647,0,0,1,1,2,2,3,3,4,4,5,5,6,6,7,7,8,8,9,9,10,10,11,11,12,12,13,13,14,14],"right_children":[2,4,6,8,10,12,14,16,18,20,22,24,26,28,30,-1,-1,-1,-1,-1,-1,-1,-1,-1,-1,-1,-1,-1,-1,-1,-1],"split_conditions":[8.3333336E-2,4.390244E-1,4.478899E-1,3.75E-1,2.5862068E-1,1.4492754E-2,3.9215688E-2,7.8125E-2,6.480314E-1,7.1875E-1,3.2142857E-1,1.7659384E1,2.0618556E-2,1.06E2,3.2142857E-1,-7.89759E-3,-6.508024E-2,-2.4952154E-5,1.4993794E-2,2.905904E-3,7.065259E-2,-3.9774526E-2,-1.2962945E-2,-1.0906425E-2,7.6752068E-3,-2.6823586E-2,-2.8170415E-3,-4.208627E-2,1.7073898E-2,1.5937742E-2,5.070458E-3],"split_indices":[3,14,20,1,12,10,4,4,20,11,12,0,10,7,12,0,0,0,0,0,0,0,0,0,0,0,0,0,0,0,0],"split_type":[0,0,0,0,0,0,0,0,0,0,0,0,0,0,0,0,0,0,0,0,0,0,0,0,0,0,0,0,0,0,0],"sum_hessian":[1.671555E4,7.7209917E3,8.994559E3,5.93611E3,1.784882E3,4.0276033E3,4.9669556E3,1.612676E3,4.3234336E3,3.3050827E2,1.4543737E3,1.6651853E3,2.362418E3,1.8496545E2,4.78199E3,1.5906547E3,2.2021353E1,3.8683965E3,4.5503714E2,3.051562E2,2.535207E1,1.6387807E2,1.2904956E3,2.490664E2,1.4161189E3,2.0065417E2,2.1617637E3,1.075733E2,7.739214E1,9.377465E2,3.844244E3],"tree_param":{"num_deleted":"0","num_feature":"23","num_nodes":"31","size_leaf_vector":"1"}},{"base_weights":[-3.260558E-10,-1.728903E-2,6.39214E-2,-5.8010746E-2,4.8553557E-3,5.5883218E-2,3.2111418E-1,-6.5691434E-2,1.252962E-1,1.908886E-2,-1.3183641E-1,-1.8410556E-1,6.2765285E-2,-1.6949661E-1,4.414539E-1,-4.6311477E-3,-1.9163385E-2,2.470599E-2,-4.9271144E-2,4.768436E-3,-3.7665719E-3,5.0057918E-2,-1.498834E-2,9.53444E-3,-4.5490384E-2,6.4752772E-3,-8.692886E-2,1.9478567E-2,-7.514083E-2,5.0383043E-2,-3.143351E-2],"categories":[],"categories_nodes":[],"categories_segments":[],"categories_sizes":[],"default_left":[0,0,0,0,0,0,0,0,0,0,0,0,0,0,0,0,0,0,0,0,0,0,0,0,0,0,0,0,0,0,0],"id":24,"left_children":[1,3,5,7,9,11,13,15,17,19,21,23,25,27,29,-1,-1,-1,-1,-1,-1,-1,-1,-1,-1,-1,-1,-1,-1,-1,-1],"loss_changes":[1.8350655E1,1.1786077E1,7.290248E0,6.4901342E0,1.6475803E1,5.6751423E0,6.3875685E0,1.0777773E1,1.4080137E1,1.2448502E1,9.189937E0,7.2966475E0,6.232829E0,4.7640066E0,4.219305E0,0E0,0E0,0E0,0E0,0E0,0E0,0E0,0E0,0E0,0E0,0E0,0E0,0E0,0E0,0E0,0E0],"parents":[2147483647,0,0,1,1,2,2,3,3,4,4,5,5,6,6,7,7,8,8,9,9,10,10,11,11,12,12,13,13,14,14],"right_children":[2,4,6,8,10,12,14,16,18,20,22,24,26,28,30,-1,-1,-1,-1,-1,-1,-1,-1,-1,-1,-1,-1,-1,-1,-1,-1],"split_conditions":[7.777778E-1,2.8220052E-1,8.2127196E-1,1.3023256E-1,4.7619048E-1,3.7142858E-2,1.891892E-1,2.6718489E1,2.496396E-1,4.3956045E-2,1.0897436E-1,9.90099E-3,1.53E2,1.509434E-1,5.1153845E-1,-4.6311477E-3,-1.9163385E-2,2.470599E-2,-4.9271144E-2,4.768436E-3,-3.7665719E-3,5.0057918E-2,-1.498834E-2,9.53444E-3,-4.5490384E-2,6.4752772E-3,-8.692886E-2,1.9478567E-2,-7.514083E-2,5.0383043E-2,-3.143351E-2],"split_indices":[1,20,20,17,14,17,13,0,20,10,12,10,7,13,12,0,0,0,0,0,0,0,0,0,0,0,0,0,0,0,0],"split_type":[0,0,0,0,0,0,0,0,0,0,0,0,0,0,0,0,0,0,0,0,0,0,0,0,0,0,0,0,0,0,0],"sum_hessian":[1.660284E4,1.3068807E4,3.5340332E3,4.602875E3,8.465932E3,3.42811E3,1.05923225E2,4.4183833E3,1.8449164E2,7.6683037E3,7.976284E2,9.484825E1,3.3332617E3,2.0783379E1,8.513985E1,3.8303403E3,5.880432E2,1.5462642E2,2.9865217E1,5.099239E3,2.5690647E3,2.1388258E1,7.762401E2,4.699733E1,4.785092E1,3.3270977E3,6.164092E0,1.319097E1,7.5924087E0,7.895679E1,6.1830635E0],"tree_param":{"num_deleted":"0","num_feature":"23","num_nodes":"31","size_leaf_vector":"1"}},{"base_weights":[2.7682479E-10,-8.23439E-2,1.2915109E-2,-7.168686E-2,-4.2505118E-1,2.4199728E-3,1.0304828E-1,-1.590447E-1,-3.4084894E-2,2.9316708E-1,-5.61482E-1,4.5794934E-2,-2.1414004E-2,7.6963894E-2,2.8743783E-1,-1.0935784E-2,-5.0613184E-2,-4.2868823E-2,-1.6763881E-3,6.8975896E-2,-1.3382855E-2,-8.819463E-2,-3.5984453E-2,7.012428E-3,-5.4650875E-3,-4.5548696E-3,4.2107194E-3,3.3177745E-2,5.774303E-3,-3.9624017E-2,3.5260316E-2],"categories":[],"categories_nodes":[],"categories_segments":[],"categories_sizes":[],"default_left":[0,0,0,0,0,0,0,0,0,0,0,0,0,0,0,0,0,0,0,0,0,0,0,0,0,0,0,0,0,0,0],"id":25,"left_children":[1,3,5,7,9,11,13,15,17,19,21,23,25,27,29,-1,-1,-1,-1,-1,-1,-1,-1,-1,-1,-1,-1,-1,-1,-1,-1],"loss_changes":[1.7539785E1,8.1362295E0,1.3486053E1,7.122134E0,6.7527227E0,1.3203449E1,7.12939E0,1.1200209E1,1.0369486E1,2.021104E0,3.3558025E0,1.1072154E1,1.2638451E1,6.3674374E0,8.333204E0,0E0,0E0,0E0,0E0,0E0,0E0,0E0,0E0,0E0,0E0,0E0,0E0,0E0,0E0,0E0,0E0],"parents":[2147483647,0,0,1,1,2,2,3,3,4,4,5,5,6,6,7,7,8,8,9,9,10,10,11,11,12,12,13,13,14,14],"right_children":[2,4,6,8,10,12,14,16,18,20,22,24,26,28,30,-1,-1,-1,-1,-1,-1,-1,-1,-1,-1,-1,-1,-1,-1,-1,-1],"split_conditions":[3.529412E-1,6.818182E-2,8.75E-1,2.8225565E-1,2.4590164E-1,9.090909E-3,1.1E2,6.497175E-2,1.9184653E-2,9.8376626E-1,2.56325E1,4.4680852E-1,8.433132E-1,2E-1,1.6077972E1,-1.0935784E-2,-5.0613184E-2,-4.2868823E-2,-1.6763881E-3,6.8975896E-2,-1.3382855E-2,-8.819463E-2,-3.5984453E-2,7.012428E-3,-5.4650875E-3,-4.5548696E-3,4.2107194E-3,3.3177745E-2,5.774303E-3,-3.9624017E-2,3.5260316E-2],"split_indices":[1,4,1,19,14,10,7,17,17,22,0,14,19,12,0,0,0,0,0,0,0,0,0,0,0,0,0,0,0,0,0],"split_type":[0,0,0,0,0,0,0,0,0,0,0,0,0,0,0,0,0,0,0,0,0,0,0,0,0,0,0,0,0,0,0],"sum_hessian":[1.6490816E4,2.2350774E3,1.4255738E4,2.1688428E3,6.62345E1,1.2769841E4,1.4858976E3,6.516601E2,1.5171827E3,1.038987E1,5.5844627E1,4.528179E3,8.241661E3,1.3029895E3,1.8290807E2,5.7120496E2,8.045511E1,6.2797394E1,1.4543854E3,5.0676646E0,5.3222046E0,2.0264368E1,3.5580257E1,3.645493E3,8.8268616E2,5.9726523E3,2.269009E3,9.025153E1,1.212738E3,1.5474783E1,1.6743327E2],"tree_param":{"num_deleted":"0","num_feature":"23","num_nodes":"31","size_leaf_vector":"1"}},{"base_weights":[-9.782706E-10,-2.538852E-2,4.1881736E-2,-8.733145E-2,-4.143773E-3,2.7855455E-3,9.881875E-2,-6.844964E-2,-2.8477284E-1,-4.993006E-2,2.9790832E-2,5.704259E-3,-8.923607E-2,8.4892705E-2,4.1880777E-1,6.3360604E-3,-1.0192598E-2,9.2594465E-3,-3.4481134E-2,-2.4818014E-3,-1.7165277E-2,5.8746818E-3,-6.052026E-3,1.4165231E-3,-2.6950797E-2,2.1717621E-2,4.8186607E-3,2.5991827E-2,7.0485674E-2],"categories":[],"categories_nodes":[],"categories_segments":[],"categories_sizes":[],"default_left":[0,0,0,0,0,0,0,0,0,0,0,0,0,0,0,0,0,0,0,0,0,0,0,0,0,0,0,0,0],"id":26,"left_children":[1,3,5,7,9,11,13,15,17,19,21,23,-1,25,27,-1,-1,-1,-1,-1,-1,-1,-1,-1,-1,-1,-1,-1,-1],"loss_changes":[1.742048E1,1.3422435E1,1.3763623E1,9.691544E0,1.1803896E1,9.585696E0,1.1181616E1,1.0503009E1,5.176077E0,9.880519E0,1.1413868E1,8.517153E0,0E0,1.1708494E1,4.576662E0,0E0,0E0,0E0,0E0,0E0,0E0,0E0,0E0,0E0,0E0,0E0,0E0,0E0,0E0],"parents":[2147483647,0,0,1,1,2,2,3,3,4,4,5,5,6,6,7,7,8,8,9,9,10,10,11,11,13,13,14,14],"right_children":[2,4,6,8,10,12,14,16,18,20,22,24,-1,26,28,-1,-1,-1,-1,-1,-1,-1,-1,-1,-1,-1,-1,-1,-1],"split_conditions":[8.154506E-2,5.8E1,6.6E1,6E0,5.6775147E-1,1.265E1,1.5555556E-1,4.781007E-2,2.3255815E-1,1.2765957E-1,9.423077E-1,6.215686E-1,-8.923607E-2,3.71134E-1,9.6825397E-1,6.3360604E-3,-1.0192598E-2,9.2594465E-3,-3.4481134E-2,-2.4818014E-3,-1.7165277E-2,5.8746818E-3,-6.052026E-3,1.4165231E-3,-2.6950797E-2,2.1717621E-2,4.8186607E-3,2.5991827E-2,7.0485674E-2],"split_indices":[17,7,7,16,19,8,4,19,11,10,11,12,0,12,11,0,0,0,0,0,0,0,0,0,0,0,0,0,0],"split_type":[0,0,0,0,0,0,0,0,0,0,0,0,0,0,0,0,0,0,0,0,0,0,0,0,0,0,0,0,0],"sum_hessian":[1.6381174E4,1.0198988E4,6.182186E3,2.6038572E3,7.595131E3,3.665971E3,2.5162153E3,2.3778083E3,2.2604901E2,3.232801E3,4.3623296E3,3.6550469E3,1.0924016E1,2.4124883E3,1.03727135E2,4.8140897E2,1.8963993E3,3.0953144E1,1.9509587E2,2.6809172E3,5.518836E2,3.303496E3,1.0588337E3,3.54695E3,1.0809693E2,5.229468E2,1.8895414E3,6.791278E1,3.581436E1],"tree_param":{"num_deleted":"0","num_feature":"23","num_nodes":"29","size_leaf_vector":"1"}},{"base_weights":[-5.958021E-10,-2.2882316E-2,4.675245E-2,-1.0116679E-1,-7.6192305E-3,-7.1298587E-3,8.4714375E-2,2.0043193E-1,-1.1979251E-1,-1.8183897E-1,-7.1702007E-4,-2.7918625E-3,-8.690825E-2,1.11467645E-1,-1.3236916E-2,3.906174E-3,7.4788176E-2,-1.0942033E-2,-5.5444356E-2,-4.946628E-2,-6.037596E-3,1.299679E-2,-1.3082054E-3,-6.8511665E-3,4.4092094E-3,1.1663473E-2,-4.880465E-2,2.7203883E-4,-9.103702E-2],"categories":[],"categories_nodes":[],"categories_segments":[],"categories_sizes":[],"default_left":[0,0,0,0,0,0,0,0,0,0,0,0,0,0,0,0,0,0,0,0,0,0,0,0,0,0,0,0,0],"id":27,"left_children":[1,3,5,7,9,11,13,15,17,19,21,23,-1,25,27,-1,-1,-1,-1,-1,-1,-1,-1,-1,-1,-1,-1,-1,-1],"loss_changes":[1.7467772E1,1.3097964E1,1.0975524E1,1.0071186E1,1.1032811E1,8.29334E0,8.250435E0,9.194092E0,7.536459E0,1.3255143E1,1.4264416E1,6.807917E0,0E0,7.7164783E0,9.682969E0,0E0,0E0,0E0,0E0,0E0,0E0,0E0,0E0,0E0,0E0,0E0,0E0,0E0,0E0],"parents":[2147483647,0,0,1,1,2,2,3,3,4,4,5,5,6,6,7,7,8,8,9,9,10,10,11,11,13,13,14,14],"right_children":[2,4,6,8,10,12,14,16,18,20,22,24,-1,26,28,-1,-1,-1,-1,-1,-1,-1,-1,-1,-1,-1,-1,-1,-1],"split_conditions":[8.661418E-2,5E1,4E0,2.8E1,1.9607844E-2,9.8373985E-1,4.473684E-1,5.5511403E-1,8.529412E-2,1.637178E-1,2.3333333E-1,5.833333E-1,-8.690825E-2,1.25E2,3.4950526E0,3.906174E-3,7.4788176E-2,-1.0942033E-2,-5.5444356E-2,-4.946628E-2,-6.037596E-3,1.299679E-2,-1.3082054E-3,-6.8511665E-3,4.4092094E-3,1.1663473E-2,-4.880465E-2,2.7203883E-4,-9.103702E-2],"split_indices":[17,7,16,7,13,11,14,20,17,19,12,1,0,7,22,0,0,0,0,0,0,0,0,0,0,0,0,0,0],"split_type":[0,0,0,0,0,0,0,0,0,0,0,0,0,0,0,0,0,0,0,0,0,0,0,0,0,0,0,0,0],"sum_hessian":[1.6326006E4,1.0961545E4,5.3644604E3,1.7875516E3,9.173994E3,2.217625E3,3.1468354E3,1.0340444E2,1.6841472E3,3.4863748E2,8.825356E3,2.2075183E3,1.010666E1,2.4716262E3,6.752091E2,8.06908E1,2.2713642E1,1.6461172E3,3.803E1,9.664894E1,2.5198853E2,7.6202905E2,8.063327E3,9.189353E2,1.2885831E3,2.4513044E3,2.0321835E1,6.643886E2,1.0820509E1],"tree_param":{"num_deleted":"0","num_feature":"23","num_nodes":"29","size_leaf_vector":"1"}},{"base_weights":[6.279918E-11,-2.62532E-2,4.180774E-2,-3.0281812E-2,2.2679824E-1,-2.5178015E-3,7.8840576E-2,-1.5923773E-1,-2.3328628E-2,1.6456762E-1,8.2000405E-2,1.3211717E-2,-2.2624364E-1,3.6889065E-2,1.2743574E-1,4.5495345E-3,-2.5315005E-2,-3.8370625E-3,5.406215E-3,-5.5306938E-2,2.2625713E-2,5.6220754E-4,3.670877E-2,-1.4333782E-2,-8.4672734E-2,4.9721086E-3,-3.240902E-2,-8.963788E-2,1.33631155E-2],"categories":[],"categories_nodes":[],"categories_segments":[],"categories_sizes":[],"default_left":[0,0,0,0,0,0,0,0,0,0,0,0,0,0,0,0,0,0,0,0,0,0,0,0,0,0,0,0,0],"id":28,"left_children":[1,3,5,7,9,11,13,15,17,19,-1,21,23,25,27,-1,-1,-1,-1,-1,-1,-1,-1,-1,-1,-1,-1,-1,-1],"loss_changes":[1.7816713E1,1.0171967E1,1.0278327E1,8.7976885E0,5.6376514E0,1.0036128E1,6.949852E0,9.663669E0,1.084556E1,6.445977E0,0E0,7.1548076E0,9.515579E0,8.503232E0,1.0142435E1,0E0,0E0,0E0,0E0,0E0,0E0,0E0,0E0,0E0,0E0,0E0,0E0,0E0,0E0],"parents":[2147483647,0,0,1,1,2,2,3,3,4,4,5,5,6,6,7,7,8,8,9,9,11,11,12,12,13,13,14,14],"right_children":[2,4,6,8,10,12,14,16,18,20,-1,22,24,26,28,-1,-1,-1,-1,-1,-1,-1,-1,-1,-1,-1,-1,-1,-1],"split_conditions":[4.7662285E-1,1.7741935E-1,7.106599E-2,3.6E1,8E1,1.3114753E-1,7E1,1.5492786E1,1.017964E-1,3.1428573E-1,8.2000405E-2,1.39E2,9.5238096E-1,5.6734695E0,1.346079E1,4.5495345E-3,-2.5315005E-2,-3.8370625E-3,5.406215E-3,-5.5306938E-2,2.2625713E-2,5.6220754E-4,3.670877E-2,-1.4333782E-2,-8.4672734E-2,4.9721086E-3,-3.240902E-2,-8.963788E-2,1.33631155E-2],"split_indices":[20,17,17,7,7,10,7,0,17,14,0,7,11,8,0,0,0,0,0,0,0,0,0,0,0,0,0,0,0],"split_type":[0,0,0,0,0,0,0,0,0,0,0,0,0,0,0,0,0,0,0,0,0,0,0,0,0,0,0,0,0],"sum_hessian":[1.6230621E4,9.970199E3,6.2604214E3,9.814826E3,1.55373E2,2.8500527E3,3.4103687E3,5.0101147E2,9.313815E3,1.4177719E2,1.3595801E1,2.6637156E3,1.8633722E2,1.8312426E3,1.5791262E3,1.5771068E2,3.433008E2,7.7985586E3,1.5152563E3,1.0592204E1,1.31185E2,2.6087805E3,5.49351E1,1.6546027E2,2.0876938E1,1.7692131E3,6.2029377E1,8.634034E0,1.5704922E3],"tree_param":{"num_deleted":"0","num_feature":"23","num_nodes":"29","size_leaf_vector":"1"}},{"base_weights":[-6.92879E-10,-4.927301E-2,2.1334149E-2,-4.7468573E-2,-8.593634E-2,-2.4781201E-2,4.219238E-2,-5.6680214E-2,1.2882905E-1,3.6734953E-3,-1.2630346E-1,-1.8244236E-3,7.492643E-2,-6.494125E-3,1.7512215E-2,1.620387E-2,-5.9265673E-2,3.958478E-3,-1.1636178E-2,-9.645871E-3,-5.4254204E-2,8.214592E-4,-4.15505E-2,1.1998639E-2,1.6594448E-3],"categories":[],"categories_nodes":[],"categories_segments":[],"categories_sizes":[],"default_left":[0,0,0,0,0,0,0,0,0,0,0,0,0,0,0,0,0,0,0,0,0,0,0,0,0],"id":29,"left_children":[1,3,5,7,-1,9,11,13,15,17,19,21,23,-1,-1,-1,-1,-1,-1,-1,-1,-1,-1,-1,-1],"loss_changes":[1.6984018E1,7.095251E0,1.0846291E1,7.919447E0,0E0,1.01462E1,1.1186714E1,8.879031E0,5.899965E0,1.1833846E1,9.499403E0,1.3759025E1,1.1701469E1,0E0,0E0,0E0,0E0,0E0,0E0,0E0,0E0,0E0,0E0,0E0,0E0],"parents":[2147483647,0,0,1,1,2,2,3,3,5,5,6,6,7,7,8,8,9,9,10,10,11,11,12,12],"right_children":[2,4,6,8,-1,10,12,14,16,18,20,22,24,-1,-1,-1,-1,-1,-1,-1,-1,-1,-1,-1,-1],"split_conditions":[2.8220052E-1,3.3333334E-1,5.9210528E-2,8.222222E0,-8.593634E-2,2.4604025E1,6.1E1,8.75E-1,9.8039216E-1,6.481481E-2,1.8146322E1,6.077482E-1,4.1304347E-1,-6.494125E-3,1.7512215E-2,1.620387E-2,-5.9265673E-2,3.958478E-3,-1.1636178E-2,-9.645871E-3,-5.4254204E-2,8.214592E-4,-4.15505E-2,1.1998639E-2,1.6594448E-3],"split_indices":[20,13,17,8,0,0,7,1,11,10,18,12,14,0,0,0,0,0,0,0,0,0,0,0,0],"split_type":[0,0,0,0,0,0,0,0,0,0,0,0,0,0,0,0,0,0,0,0,0,0,0,0,0],"sum_hessian":[1.6154825E4,4.8808296E3,1.1273996E4,4.8710386E3,9.7914E0,3.5111113E3,7.762885E3,4.629807E3,2.4123134E2,2.7432078E3,7.679034E2,3.311254E3,4.451631E3,4.4711816E3,1.5862527E2,2.3135747E2,9.873863E0,2.1120195E3,6.311884E2,7.176769E2,5.0226498E1,3.2337585E3,7.749527E1,2.5109382E3,1.9406926E3],"tree_param":{"num_deleted":"0","num_feature":"23","num_nodes":"25","size_leaf_vector":"1"}},{"base_weights":[-8.171835E-11,-9.984357E-2,1.0437769E-2,-2.9482073E-1,-7.538687E-2,-6.078904E-3,5.833294E-2,-5.836276E-1,-1.9753782E-1,-2.8143495E-2,-1.7306972E-1,-8.730614E-2,3.330311E-3,2.7094638E-1,4.706359E-2,-8.029918E-2,1.0562739E-2,-6.0245334E-3,-5.8663733E-2,-7.77877E-3,2.2738745E-2,-1.958315E-2,5.820148E-2,-3.7190814E-2,-6.8262354E-3,-1.0264346E-3,7.905415E-3,3.0160574E-2,-5.6487568E-2,-6.795316E-4,9.227185E-3],"categories":[],"categories_nodes":[],"categories_segments":[],"categories_sizes":[],"default_left":[0,0,0,0,0,0,0,0,0,0,0,0,0,0,0,0,0,0,0,0,0,0,0,0,0,0,0,0,0,0,0],"id":30,"left_children":[1,3,5,7,9,11,13,15,17,19,21,23,25,27,29,-1,-1,-1,-1,-1,-1,-1,-1,-1,-1,-1,-1,-1,-1,-1,-1],"loss_changes":[1.675361E1,7.233286E0,1.1514004E1,4.639638E0,6.2404814E0,8.272396E0,8.929691E0,6.454994E0,6.80821E0,1.1604111E1,7.69281E0,6.0646095E0,9.987096E0,4.9791527E0,8.633594E0,0E0,0E0,0E0,0E0,0E0,0E0,0E0,0E0,0E0,0E0,0E0,0E0,0E0,0E0,0E0,0E0],"parents":[2147483647,0,0,1,1,2,2,3,3,4,4,5,5,6,6,7,7,8,8,9,9,10,10,11,11,12,12,13,13,14,14],"right_children":[2,4,6,8,10,12,14,16,18,20,22,24,26,28,30,-1,-1,-1,-1,-1,-1,-1,-1,-1,-1,-1,-1,-1,-1,-1,-1],"split_conditions":[2.8985508E-2,1.7391305E-1,5.655468E-1,4E0,4.1666666E-1,4.1E1,2.2881356E-1,3.8072705E-1,6E0,4.032258E-1,1.6793388E1,2.3809524E-1,1.0909091E-1,9.5251787E-1,7.693088E-1,-8.029918E-2,1.0562739E-2,-6.0245334E-3,-5.8663733E-2,-7.77877E-3,2.2738745E-2,-1.958315E-2,5.820148E-2,-3.7190814E-2,-6.8262354E-3,-1.0264346E-3,7.905415E-3,3.0160574E-2,-5.6487568E-2,-6.795316E-4,9.227185E-3],"split_indices":[4,11,20,6,14,7,12,20,16,14,8,14,17,19,19,0,0,0,0,0,0,0,0,0,0,0,0,0,0,0,0],"split_type":[0,0,0,0,0,0,0,0,0,0,0,0,0,0,0,0,0,0,0,0,0,0,0,0,0,0,0,0,0,0,0],"sum_hessian":[1.6074098E4,1.5205502E3,1.4553548E4,1.6823877E2,1.3523114E3,1.0822334E4,3.731214E3,4.11314E1,1.27107376E2,9.123501E2,4.3996127E2,1.1226364E3,9.699697E3,1.8665427E2,3.5445598E3,3.107604E1,1.005536E1,9.480911E1,3.229826E1,7.645165E2,1.4783363E2,4.2780585E2,1.2155425E1,6.924642E1,1.0533899E3,8.224095E3,1.4756024E3,1.8066628E2,5.987991E0,1.6179103E3,1.9266494E3],"tree_param":{"num_deleted":"0","num_feature":"23","num_nodes":"31","size_leaf_vector":"1"}},{"base_weights":[6.933781E-11,-2.9449958E-2,3.1254105E-2,-4.503591E-2,7.400879E-2,1.9009076E-2,1.6113247E-1,-6.1603453E-2,4.9219698E-2,-7.408152E-2,1.8270944E-1,-2.6361523E-2,4.677044E-2,7.773747E-2,3.3416787E-1,-2.1432482E-3,-1.1196684E-2,1.1016342E-2,-2.0333633E-2,-3.0771343E-3,-7.678308E-2,-9.2399314E-2,1.9681476E-2,2.1272425E-3,-1.1120084E-2,1.0866574E-2,2.3139347E-3,1.0902832E-2,-3.9213043E-2,4.1053355E-2,-8.215189E-3],"categories":[],"categories_nodes":[],"categories_segments":[],"categories_sizes":[],"default_left":[0,0,0,0,0,0,0,0,0,0,0,0,0,0,0,0,0,0,0,0,0,0,0,0,0,0,0,0,0,0,0],"id":31,"left_children":[1,3,5,7,9,11,13,15,17,19,21,23,25,27,29,-1,-1,-1,-1,-1,-1,-1,-1,-1,-1,-1,-1,-1,-1,-1,-1],"loss_changes":[1.4731362E1,1.3290764E1,1.2345449E1,1.11871195E1,1.7386538E1,8.939925E0,9.625647E0,1.2322151E1,1.6510666E1,1.3724285E1,9.902113E0,1.0891893E1,6.4377403E0,6.6975713E0,6.9395504E0,0E0,0E0,0E0,0E0,0E0,0E0,0E0,0E0,0E0,0E0,0E0,0E0,0E0,0E0,0E0,0E0],"parents":[2147483647,0,0,1,1,2,2,3,3,4,4,5,5,6,6,7,7,8,8,9,9,10,10,11,11,12,12,13,13,14,14],"right_children":[2,4,6,8,10,12,14,16,18,20,22,24,26,28,30,-1,-1,-1,-1,-1,-1,-1,-1,-1,-1,-1,-1,-1,-1,-1,-1],"split_conditions":[7.172996E-2,1.07E2,9E-1,8.6241764E-1,4.7945205E-2,4E0,1.89E0,4.0957448E-1,1.3000135E1,9.0213144E-1,2.1088435E-1,5.5555556E-2,4E0,4.852941E-1,3.8333134E1,-2.1432482E-3,-1.1196684E-2,1.1016342E-2,-2.0333633E-2,-3.0771343E-3,-7.678308E-2,-9.2399314E-2,1.9681476E-2,2.1272425E-3,-1.1120084E-2,1.0866574E-2,2.3139347E-3,1.0902832E-2,-3.9213043E-2,4.1053355E-2,-8.215189E-3],"split_indices":[17,7,1,19,17,16,8,12,18,19,12,10,9,14,0,0,0,0,0,0,0,0,0,0,0,0,0,0,0,0,0],"split_type":[0,0,0,0,0,0,0,0,0,0,0,0,0,0,0,0,0,0,0,0,0,0,0,0,0,0,0,0,0,0,0],"sum_hessian":[1.6002833E4,8.239252E3,7.7635815E3,7.1610166E3,1.0782351E3,7.095737E3,6.6784503E2,6.090773E3,1.0702437E3,4.5655606E2,6.2167896E2,2.6936062E3,4.4021304E3,4.516298E2,2.1621524E2,3.389031E3,2.7017417E3,8.626447E2,2.0759903E2,4.307115E2,2.5844595E1,7.0119867E0,6.14667E2,1.7255353E3,9.6807104E2,1.215322E3,3.1868083E3,4.241514E2,2.7478395E1,1.8271387E2,3.3501377E1],"tree_param":{"num_deleted":"0","num_feature":"23","num_nodes":"31","size_leaf_vector":"1"}},{"base_weights":[-3.4868955E-10,4.2966448E-2,-2.1068225E-2,1.8844986E-2,1.3714051E-1,-5.371486E-2,2.7805977E-2,-4.56965E-2,6.8701826E-2,1.022824E-1,4.3305436E-1,-5.672195E-2,4.0411034E-1,1.942878E-2,2.5505868E-1,-1.1581661E-3,-1.8480662E-2,5.507254E-3,3.849728E-2,4.374598E-3,2.8925115E-2,5.73026E-2,-3.6628952E-3,-8.966451E-3,-1.4927222E-3,6.219656E-2,-5.088508E-2,2.212263E-3,-6.6045806E-2,2.0981375E-3,4.0446237E-2],"categories":[],"categories_nodes":[],"categories_segments":[],"categories_sizes":[],"default_left":[0,0,0,0,0,0,0,0,0,0,0,0,0,0,0,0,0,0,0,0,0,0,0,0,0,0,0,0,0,0,0],"id":32,"left_children":[1,3,5,7,9,11,13,15,17,19,21,23,25,27,29,-1,-1,-1,-1,-1,-1,-1,-1,-1,-1,-1,-1,-1,-1,-1,-1],"loss_changes":[1.4407309E1,1.1892651E1,1.7041029E1,1.3421074E1,1.0968E1,8.837885E0,8.13804E0,8.6251135E0,1.0121356E1,1.0454662E1,7.3972073E0,8.757959E0,8.650915E0,7.5721197E0,5.306837E0,0E0,0E0,0E0,0E0,0E0,0E0,0E0,0E0,0E0,0E0,0E0,0E0,0E0,0E0,0E0,0E0],"parents":[2147483647,0,0,1,1,2,2,3,3,4,4,5,5,6,6,7,7,8,8,9,9,10,10,11,11,12,12,13,13,14,14],"right_children":[2,4,6,8,10,12,14,16,18,20,22,24,26,28,30,-1,-1,-1,-1,-1,-1,-1,-1,-1,-1,-1,-1,-1,-1,-1,-1],"split_conditions":[9.090909E-3,9.7E1,7.550912E-1,6.111111E-1,5.625E-1,1.42E2,1.7741935E-1,1.5611572E1,7.994511E-1,1.4678095E1,7.8571427E-1,6.779661E-2,8E0,1.43E2,1.0924511E1,-1.1581661E-3,-1.8480662E-2,5.507254E-3,3.849728E-2,4.374598E-3,2.8925115E-2,5.73026E-2,-3.6628952E-3,-8.966451E-3,-1.4927222E-3,6.219656E-2,-5.088508E-2,2.212263E-3,-6.6045806E-2,2.0981375E-3,4.0446237E-2],"split_indices":[10,7,19,1,3,7,17,18,20,18,3,17,6,7,18,0,0,0,0,0,0,0,0,0,0,0,0,0,0,0,0],"split_type":[0,0,0,0,0,0,0,0,0,0,0,0,0,0,0,0,0,0,0,0,0,0,0,0,0,0,0,0,0,0,0],"sum_hessian":[1.5913688E4,5.2354644E3,1.0678225E4,4.1688643E3,1.0666003E3,6.4018584E3,4.276366E3,1.8169021E3,2.3519622E3,9.554014E2,1.1119889E2,6.360954E3,4.0903996E1,4.125378E3,1.5098796E2,1.4599521E3,3.5694992E2,2.2559204E3,9.604184E1,7.2854236E2,2.2685904E2,8.5499054E1,2.5699837E1,3.556545E3,2.8044094E3,3.3281048E1,7.622948E0,4.1100605E3,1.5317422E1,5.926902E1,9.171894E1],"tree_param":{"num_deleted":"0","num_feature":"23","num_nodes":"31","size_leaf_vector":"1"}},{"base_weights":[-2.5943714E-10,-2.3662595E-2,3.767606E-2,-2.7873483E-2,2.3366338E-1,-4.7391057E-2,5.690688E-2,1.744949E-2,-4.6713475E-2,1.7379859E-1,8.046639E-2,-8.190137E-2,1.4437377E-1,4.9146593E-1,5.3984165E-2,3.5314043E-3,-2.4237143E-2,-1.0458725E-2,-2.5841012E-3,-3.1012384E-2,2.5277033E-2,5.2194614E-3,-1.748264E-2,2.7489666E-2,-5.243838E-2,1.7550563E-2,7.3990874E-2,-9.043314E-2,5.615897E-3],"categories":[],"categories_nodes":[],"categories_segments":[],"categories_sizes":[],"default_left":[0,0,0,0,0,0,0,0,0,0,0,0,0,0,0,0,0,0,0,0,0,0,0,0,0,0,0,0,0],"id":33,"left_children":[1,3,5,7,9,11,13,15,17,19,-1,21,23,25,27,-1,-1,-1,-1,-1,-1,-1,-1,-1,-1,-1,-1,-1,-1],"loss_changes":[1.4103179E1,1.0535285E1,9.986059E0,8.164963E0,5.2115183E0,7.4620237E0,6.2958126E0,1.3042833E1,8.155953E0,5.5422053E0,0E0,1.1905673E1,1.516284E1,2.4709845E0,1.0358425E1,0E0,0E0,0E0,0E0,0E0,0E0,0E0,0E0,0E0,0E0,0E0,0E0,0E0,0E0],"parents":[2147483647,0,0,1,1,2,2,3,3,4,4,5,5,6,6,7,7,8,8,9,9,11,11,12,12,13,13,14,14],"right_children":[2,4,6,8,10,12,14,16,18,20,-1,22,24,26,28,-1,-1,-1,-1,-1,-1,-1,-1,-1,-1,-1,-1,-1,-1],"split_conditions":[4.7662285E-1,1.7741935E-1,4.5918116E-1,9.90099E-3,8E1,1.7948718E-1,1.6E-1,2.4489796E-1,1.4831166E-1,3.409091E-1,8.046639E-2,3.527443E-1,1.304436E1,5E-2,1.875E-1,3.5314043E-3,-2.4237143E-2,-1.0458725E-2,-2.5841012E-3,-3.1012384E-2,2.5277033E-2,5.2194614E-3,-1.748264E-2,2.7489666E-2,-5.243838E-2,1.7550563E-2,7.3990874E-2,-9.043314E-2,5.615897E-3],"split_indices":[20,17,19,10,7,13,8,13,20,14,0,12,18,3,8,0,0,0,0,0,0,0,0,0,0,0,0,0,0],"split_type":[0,0,0,0,0,0,0,0,0,0,0,0,0,0,0,0,0,0,0,0,0,0,0,0,0,0,0,0,0],"sum_hessian":[1.581737E4,9.715736E3,6.1016343E3,9.560185E3,1.5555138E2,1.1247709E3,4.9768633E3,2.8071519E3,6.7530327E3,1.4197122E2,1.3580158E1,9.5371216E2,1.7105872E2,3.213256E1,4.944731E3,2.6273657E3,1.7978616E2,1.7888947E3,4.964138E3,1.9507328E1,1.2246389E2,3.9055618E2,5.6315594E2,1.4361751E2,2.7441204E1,1.4895476E1,1.7237085E1,1.0256908E1,4.9344736E3],"tree_param":{"num_deleted":"0","num_feature":"23","num_nodes":"29","size_leaf_vector":"1"}},{"base_weights":[2.4203456E-10,-9.485809E-3,9.67823E-2,3.3622384E-2,-3.0665057E-2,6.984572E-2,2.8992262E-1,-5.769929E-1,3.62589E-2,-5.6608617E-2,1.0798889E-2,7.66266E-2,-5.6078136E-1,-4.3300986E-1,3.5648426E-1,-9.103393E-2,2.282953E-2,-4.4857822E-2,3.9220992E-3,-4.378898E-2,-5.3333594E-3,-1.12080285E-2,2.5672293E-3,2.940314E-2,5.5005485E-3,-8.816394E-3,-8.485817E-2,-7.395663E-2,1.3127736E-2,2.366773E-2,6.179468E-2],"categories":[],"categories_nodes":[],"categories_segments":[],"categories_sizes":[],"default_left":[0,0,0,0,0,0,0,0,0,0,0,0,0,0,0,0,0,0,0,0,0,0,0,0,0,0,0,0,0,0,0],"id":34,"left_children":[1,3,5,7,9,11,13,15,17,19,21,23,25,27,29,-1,-1,-1,-1,-1,-1,-1,-1,-1,-1,-1,-1,-1,-1,-1,-1],"loss_changes":[1.4445673E1,1.3084739E1,7.2870054E0,7.6222005E0,1.0338169E1,5.3196363E0,8.411431E0,5.6728272E0,6.770623E0,7.3582764E0,6.7641163E0,5.72653E0,1.7270808E0,2.6777892E0,4.792963E0,0E0,0E0,0E0,0E0,0E0,0E0,0E0,0E0,0E0,0E0,0E0,0E0,0E0,0E0,0E0,0E0],"parents":[2147483647,0,0,1,1,2,2,3,3,4,4,5,5,6,6,7,7,8,8,9,9,10,10,11,11,12,12,13,13,14,14],"right_children":[2,4,6,8,10,12,14,16,18,20,22,24,26,28,30,-1,-1,-1,-1,-1,-1,-1,-1,-1,-1,-1,-1,-1,-1,-1,-1],"split_conditions":[8.75E-1,9.090909E-3,1.1E2,2.2E1,7.550912E-1,5.365854E-1,3.5714287E-1,6.923077E-1,2E-1,2.5151348E0,1.4084507E-2,2.4003762E-1,4.6009234E-1,6.363636E-1,1.875E-1,-9.103393E-2,2.282953E-2,-4.4857822E-2,3.9220992E-3,-4.378898E-2,-5.3333594E-3,-1.12080285E-2,2.5672293E-3,2.940314E-2,5.5005485E-3,-8.816394E-3,-8.485817E-2,-7.395663E-2,1.3127736E-2,2.366773E-2,6.179468E-2],"split_indices":[1,10,7,7,19,14,12,1,1,18,10,20,20,3,13,0,0,0,0,0,0,0,0,0,0,0,0,0,0,0,0],"split_type":[0,0,0,0,0,0,0,0,0,0,0,0,0,0,0,0,0,0,0,0,0,0,0,0,0,0,0,0,0,0,0],"sum_hessian":[1.5733025E4,1.432947E4,1.4035554E3,4.7205947E3,9.608875E3,1.2329606E3,1.705949E2,1.9358381E1,4.7012363E3,5.910421E3,3.6984543E3,1.2207133E3,1.2247335E1,1.3918567E1,1.5667633E2,1.3598766E1,5.759615E0,2.763406E1,4.673602E3,4.9205235E1,5.861216E3,3.9862338E2,3.299831E3,1.0928006E2,1.1114332E3,5.1297483E0,7.1175876E0,8.817645E0,5.100921E0,1.0875018E2,4.792614E1],"tree_param":{"num_deleted":"0","num_feature":"23","num_nodes":"31","size_leaf_vector":"1"}},{"base_weights":[6.521334E-10,-4.815937E-2,1.8524146E-2,-5.7193503E-2,1.4287463E-1,3.7549064E-2,-2.8860366E-2,-5.4661714E-2,-8.485939E-2,-8.007778E-2,1.8391827E-1,-1.3603513E-2,5.945071E-2,-3.580956E-2,3.2440516E-1,-3.8457555E-3,-1.3663612E-2,2.3216676E-2,-5.690229E-2,8.221323E-4,-1.8178314E-2,7.6736915E-3,-4.295007E-3,-6.3608945E-3,6.701159E-3,5.16207E-2,-2.9251037E-2],"categories":[],"categories_nodes":[],"categories_segments":[],"categories_sizes":[],"default_left":[0,0,0,0,0,0,0,0,0,0,0,0,0,0,0,0,0,0,0,0,0,0,0,0,0,0,0],"id":35,"left_children":[1,3,5,7,9,11,13,15,-1,-1,17,19,21,23,25,-1,-1,-1,-1,-1,-1,-1,-1,-1,-1,-1,-1],"loss_changes":[1.3981554E1,7.521867E0,1.0204792E1,8.284431E0,7.772523E0,9.049238E0,7.973273E0,5.5014677E0,0E0,0E0,7.0157537E0,8.892086E0,1.0014086E1,9.098118E0,7.5659523E0,0E0,0E0,0E0,0E0,0E0,0E0,0E0,0E0,0E0,0E0,0E0,0E0],"parents":[2147483647,0,0,1,1,2,2,3,3,4,4,5,5,6,6,7,7,10,10,11,11,12,12,13,13,14,14],"right_children":[2,4,6,8,10,12,14,16,-1,-1,18,20,22,24,26,-1,-1,-1,-1,-1,-1,-1,-1,-1,-1,-1,-1],"split_conditions":[2.6369655E-1,1.2840466E-1,4.625E-1,4.403638E1,9.615337E-1,5.4545456E-1,1.4E2,2.5217722E1,-8.485939E-2,-8.007778E-2,2.496396E-1,1.7171717E-1,4.6E-1,1.0909091E-1,9.736842E-1,-3.8457555E-3,-1.3663612E-2,2.3216676E-2,-5.690229E-2,8.221323E-4,-1.8178314E-2,7.6736915E-3,-4.295007E-3,-6.3608945E-3,6.701159E-3,5.16207E-2,-2.9251037E-2],"split_indices":[20,17,12,0,22,1,7,0,0,0,20,13,14,17,11,0,0,0,0,0,0,0,0,0,0,0,0],"split_type":[0,0,0,0,0,0,0,0,0,0,0,0,0,0,0,0,0,0,0,0,0,0,0,0,0,0,0],"sum_hessian":[1.5670438E4,4.3526777E3,1.1317761E4,4.1568E3,1.9587746E2,8.075606E3,3.2421545E3,4.14461E3,1.2190065E1,7.392929E0,1.8848453E2,2.4211792E3,5.654427E3,3.1804888E3,6.1665737E1,3.4617778E3,6.8283215E2,1.7778378E2,1.0700734E1,2.1439126E3,2.7726657E2,4.837981E3,8.1644574E2,2.5038997E3,6.7658905E2,4.716513E1,1.4500607E1],"tree_param":{"num_deleted":"0","num_feature":"23","num_nodes":"27","size_leaf_vector":"1"}},{"base_weights":[-2.2155205E-10,-2.212995E-2,3.8905945E-2,-1.0351467E-1,-8.974497E-3,-2.7505254E-2,6.1206363E-2,-9.557097E-2,-8.191349E-2,-2.0343143E-2,9.570286E-2,-4.6866264E-2,3.163369E-1,2.1741545E-1,4.4243917E-2,-7.1736365E-3,-2.9515991E-2,-6.637383E-4,-1.138841E-2,1.2995918E-2,-2.7222631E-2,3.583258E-3,-1.612054E-2,4.789293E-2,-2.4521768E-3,1.2567448E-2,3.552504E-2,-8.844453E-2,4.6958225E-3],"categories":[],"categories_nodes":[],"categories_segments":[],"categories_sizes":[],"default_left":[0,0,0,0,0,0,0,0,0,0,0,0,0,0,0,0,0,0,0,0,0,0,0,0,0,0,0,0,0],"id":36,"left_children":[1,3,5,7,9,11,13,15,-1,17,19,21,23,25,27,-1,-1,-1,-1,-1,-1,-1,-1,-1,-1,-1,-1,-1,-1],"loss_changes":[1.3431965E1,1.0645954E1,8.378762E0,7.7874374E0,1.0190613E1,9.485232E0,1.121123E1,6.4942513E0,0E0,9.901399E0,1.0609154E1,1.2748611E1,4.221653E0,5.197365E0,9.673887E0,0E0,0E0,0E0,0E0,0E0,0E0,0E0,0E0,0E0,0E0,0E0,0E0,0E0,0E0],"parents":[2147483647,0,0,1,1,2,2,3,3,4,4,5,5,6,6,7,7,9,9,10,10,11,11,12,12,13,13,14,14],"right_children":[2,4,6,8,10,12,14,16,-1,18,20,22,24,26,28,-1,-1,-1,-1,-1,-1,-1,-1,-1,-1,-1,-1,-1,-1],"split_conditions":[2.2222222E-1,3.6363635E-2,6.25E-1,5.0549453E-1,6.288337E-1,1.16E2,2.3333333E-1,9E0,-8.191349E-2,1.75E-1,6E0,4.032258E-1,5.833333E-1,6.942149E-1,2.0491803E-2,-7.1736365E-3,-2.9515991E-2,-6.637383E-4,-1.138841E-2,1.2995918E-2,-2.7222631E-2,3.583258E-3,-1.612054E-2,4.789293E-2,-2.4521768E-3,1.2567448E-2,3.552504E-2,-8.844453E-2,4.6958225E-3],"split_indices":[3,17,1,14,20,7,12,16,0,13,2,14,1,8,17,0,0,0,0,0,0,0,0,0,0,0,0,0,0],"split_type":[0,0,0,0,0,0,0,0,0,0,0,0,0,0,0,0,0,0,0,0,0,0,0,0,0,0,0,0,0],"sum_hessian":[1.5598666E4,9.94329E3,5.655376E3,1.3826729E3,8.560617E3,1.4215956E3,4.2337803E3,1.3686143E3,1.4058669E1,7.7226885E3,8.3792896E2,1.3466333E3,7.496232E1,4.1354843E2,3.8202317E3,1.2238262E3,1.4478802E2,6.7366895E3,9.8599896E2,7.671497E2,7.077926E1,7.81836E2,5.647973E2,5.047856E1,2.448376E1,2.4943791E2,1.6411052E2,1.0186289E1,3.8100454E3],"tree_param":{"num_deleted":"0","num_feature":"23","num_nodes":"29","size_leaf_vector":"1"}}]},"name":"gbtree"},"learner_model_param":{"base_score":"[-4.8369397E-9]","boost_from_average":"1","num_class":"0","num_feature":"23","num_target":"1"},"objective":{"lambdarank_param":{"lambdarank_bias_norm":"1","lambdarank_normalization":"1","lambdarank_num_pair_per_sample":"4294967295","lambdarank_pair_method":"topk","lambdarank_score_normalization":"1","lambdarank_unbiased":"0","ndcg_exp_gain":"1"},"name":"rank:ndcg"}},"version":[3,2,0]}